{"learner":{"attributes":{"scikit_learn":"{\"_estimator_type\": \"classifier\"}"},"feature_names":["return_1","return_3","macd","rsi","boll_upper","boll_lower"],"feature_types":["float","float","float","float","float","float"],"gradient_booster":{"model":{"gbtree_model_param":{"num_parallel_tree":"1","num_trees":"200"},"iteration_indptr":[0,1,2,3,4,5,6,7,8,9,10,11,12,13,14,15,16,17,18,19,20,21,22,23,24,25,26,27,28,29,30,31,32,33,34,35,36,37,38,39,40,41,42,43,44,45,46,47,48,49,50,51,52,53,54,55,56,57,58,59,60,61,62,63,64,65,66,67,68,69,70,71,72,73,74,75,76,77,78,79,80,81,82,83,84,85,86,87,88,89,90,91,92,93,94,95,96,97,98,99,100,101,102,103,104,105,106,107,108,109,110,111,112,113,114,115,116,117,118,119,120,121,122,123,124,125,126,127,128,129,130,131,132,133,134,135,136,137,138,139,140,141,142,143,144,145,146,147,148,149,150,151,152,153,154,155,156,157,158,159,160,161,162,163,164,165,166,167,168,169,170,171,172,173,174,175,176,177,178,179,180,181,182,183,184,185,186,187,188,189,190,191,192,193,194,195,196,197,198,199,200],"tree_info":[0,0,0,0,0,0,0,0,0,0,0,0,0,0,0,0,0,0,0,0,0,0,0,0,0,0,0,0,0,0,0,0,0,0,0,0,0,0,0,0,0,0,0,0,0,0,0,0,0,0,0,0,0,0,0,0,0,0,0,0,0,0,0,0,0,0,0,0,0,0,0,0,0,0,0,0,0,0,0,0,0,0,0,0,0,0,0,0,0,0,0,0,0,0,0,0,0,0,0,0,0,0,0,0,0,0,0,0,0,0,0,0,0,0,0,0,0,0,0,0,0,0,0,0,0,0,0,0,0,0,0,0,0,0,0,0,0,0,0,0,0,0,0,0,0,0,0,0,0,0,0,0,0,0,0,0,0,0,0,0,0,0,0,0,0,0,0,0,0,0,0,0,0,0,0,0,0,0,0,0,0,0,0,0,0,0,0,0,0,0,0,0,0,0,0,0,0,0,0,0],"trees":[{"base_weights":[-5.1289424E-3,1.1557016E-1,-1.9175205E-1,1.0279613E0,8.879372E-2,6.7789483E-1,-2.2450498E-1,2.401552E-1,-1.3540569E-1,-2.1264303E-1,1.3229775E-1,9.213706E-1,-3.4345853E-1,-1.9722413E-1,-6.9024014E-1,-3.9979003E-2,-8.478051E-1,1.5228015E-1,-5.7067823E-1,2.4580653E-1,5.3011876E-2,-1.5588054E-1,6.849702E-2,-7.5733446E-2,-3.0582085E-1,-1.9180106E-1,-2.1080112E-1,3.559217E-1,-3.39599E-1,-3.0190501E-2,-1.0672908E0,8.632527E-2,4.0161788E-1,3.369629E-1,-1.033943E0,-3.88887E-1,1.4492217E-1,-4.6050742E-1,1.5749094E-1,9.573495E-2,-4.4335604E-1,2.3103781E-1,1.254599E-1,-1.1090329E0,-2.1230164E-1,-1.3540569E-1,8.822684E-2,-2.752035E-1,-5.7368517E-2,1.2621492E-1,-9.201393E-1,2.2598206E-1,6.386696E-1,-1.1040387E-1,1.3085656E-1,-2.4120967E-1,-9.372466E-3,-4.2470753E-1,1.8677872E-1,7.2175E-1,-4.5826875E-2,-5.4900914E-1,-2.962467E-1,3.9814904E-1,-7.924064E-1,-2.2913459E-1,-6.200198E-2,-4.5386672E-2,1.4477162E-1,-2.0953428E-2,-2.7574942E-1,-1.43031E-2,-1.7393367E-1,1.6290765E-1,-2.159518E-1,1.909552E-1,2.067433E-2,-2.1468034E-1,6.388157E-2,5.7669666E-2,-7.050597E-2,1.6793993E-1,1.21295545E-2,-6.5293215E-2,-1.8145208E-1,8.436726E-2,2.2463742E-1,3.166516E-2,-1.1805326E-1,-2.0754395E-1,-8.5413866E-2,4.7353383E-2,-8.7155715E-2,1.5186523E-1,-5.7637937E-2,-1.2400396E-2,-2.7433643E-1,7.820334E-2,-1.5588054E-1],"categories":[],"categories_nodes":[],"categories_segments":[],"categories_sizes":[],"default_left":[0,0,0,0,0,0,0,0,0,0,0,0,0,0,0,0,0,0,0,0,0,0,0,0,0,0,0,0,0,0,0,0,0,0,0,0,0,0,0,0,0,0,0,0,0,0,0,0,0,0,0,0,0,0,0,0,0,0,0,0,0,0,0,0,0,0,0,0,0,0,0,0,0,0,0,0,0,0,0,0,0,0,0,0,0,0,0,0,0,0,0,0,0,0,0,0,0,0,0],"id":0,"left_children":[1,3,5,7,9,11,13,-1,-1,15,17,19,21,23,25,27,29,31,33,-1,-1,-1,-1,35,37,-1,39,41,43,45,47,49,51,53,55,57,59,61,63,-1,65,-1,67,69,71,-1,-1,-1,73,75,77,79,81,-1,-1,-1,-1,83,-1,85,87,89,91,93,95,-1,97,-1,-1,-1,-1,-1,-1,-1,-1,-1,-1,-1,-1,-1,-1,-1,-1,-1,-1,-1,-1,-1,-1,-1,-1,-1,-1,-1,-1,-1,-1,-1,-1],"loss_changes":[2.6184927E1,1.7155327E1,1.3156141E1,6.715475E0,9.036081E0,4.4989643E0,5.4635563E0,0E0,0E0,9.509217E0,8.527748E0,2.4714794E0,1.452929E0,5.488249E0,2.8887558E0,8.361087E0,3.2965603E0,9.5869055E0,7.4205084E0,0E0,0E0,0E0,0E0,1.3772031E1,1.5857016E1,0E0,1.7993265E0,5.4573145E0,3.6876812E0,1.8092337E0,4.4715176E0,1.8742931E1,4.939934E0,2.1772413E0,1.8769655E0,4.297204E0,1.2925464E1,2.241417E0,1.30880575E1,0E0,2.0504317E0,0E0,5.3788667E0,1.3315349E0,3.232935E0,0E0,0E0,0E0,4.8556805E0,8.364553E0,3.7259283E0,2.6882737E0,5.924494E0,0E0,0E0,0E0,0E0,3.536049E0,0E0,3.0391235E0,9.985061E0,5.891384E0,4.5710855E0,1.1434439E1,4.8350463E0,0E0,2.3167038E0,0E0,0E0,0E0,0E0,0E0,0E0,0E0,0E0,0E0,0E0,0E0,0E0,0E0,0E0,0E0,0E0,0E0,0E0,0E0,0E0,0E0,0E0,0E0,0E0,0E0,0E0,0E0,0E0,0E0,0E0,0E0,0E0],"parents":[2147483647,0,0,1,1,2,2,3,3,4,4,5,5,6,6,9,9,10,10,11,11,12,12,13,13,14,14,15,15,16,16,17,17,18,18,23,23,24,24,26,26,27,27,28,28,29,29,30,30,31,31,32,32,33,33,34,34,35,35,36,36,37,37,38,38,40,40,42,42,43,43,44,44,48,48,49,49,50,50,51,51,52,52,57,57,59,59,60,60,61,61,62,62,63,63,64,64,66,66],"right_children":[2,4,6,8,10,12,14,-1,-1,16,18,20,22,24,26,28,30,32,34,-1,-1,-1,-1,36,38,-1,40,42,44,46,48,50,52,54,56,58,60,62,64,-1,66,-1,68,70,72,-1,-1,-1,74,76,78,80,82,-1,-1,-1,-1,84,-1,86,88,90,92,94,96,-1,98,-1,-1,-1,-1,-1,-1,-1,-1,-1,-1,-1,-1,-1,-1,-1,-1,-1,-1,-1,-1,-1,-1,-1,-1,-1,-1,-1,-1,-1,-1,-1,-1],"split_conditions":[1.1356817E0,1.1255859E0,-5.906252E-4,6.804759E-4,1.1301401E0,1.1392107E0,1.1399184E0,2.401552E-1,-1.3540569E-1,1.128401E0,8.66714E-4,-6.864542E-4,-6.550149E-4,1.4696757E-5,5.0328166E-5,-6.177904E-5,-1.12827016E-4,1.1367161E0,1.1363238E0,2.4580653E-1,5.3011876E-2,-1.5588054E-1,6.849702E-2,-2.1827802E-4,1.1398025E0,-1.9180106E-1,1.140639E0,1.1268623E0,1.1266955E0,1.1292562E0,1.4103304E-4,1.1352153E0,1.1267926E-4,9.1626705E-4,1.4727957E-3,1.1419848E0,1.1362256E0,1.1369488E0,1.1395749E0,9.573495E-2,1.1412973E0,2.3103781E-1,-1.2450355E-4,5.5532455E-5,1.1292562E0,-1.3540569E-1,8.822684E-2,-2.752035E-1,1.7638814E-4,1.1283582E0,2.4211057E-4,6.333388E-4,3.4113694E-4,-1.1040387E-1,1.3085656E-1,-2.4120967E-1,-9.372466E-3,-2.530691E-4,1.8677872E-1,1.136039E0,1.13769296E-4,7.275011E-5,1.1382285E0,1.1412176E0,1.3743991E-4,-2.2913459E-1,1.1267926E-4,-4.5386672E-2,1.4477162E-1,-2.0953428E-2,-2.7574942E-1,-1.43031E-2,-1.7393367E-1,1.6290765E-1,-2.159518E-1,1.909552E-1,2.067433E-2,-2.1468034E-1,6.388157E-2,5.7669666E-2,-7.050597E-2,1.6793993E-1,1.21295545E-2,-6.5293215E-2,-1.8145208E-1,8.436726E-2,2.2463742E-1,3.166516E-2,-1.1805326E-1,-2.0754395E-1,-8.5413866E-2,4.7353383E-2,-8.7155715E-2,1.5186523E-1,-5.7637937E-2,-1.2400396E-2,-2.7433643E-1,7.820334E-2,-1.5588054E-1],"split_indices":[5,5,2,0,4,5,5,0,0,5,2,2,2,2,2,2,0,4,4,0,0,0,0,2,4,0,4,5,5,4,2,5,0,2,2,4,5,5,5,0,4,0,2,2,4,0,0,0,2,5,2,2,0,0,0,0,0,2,0,5,0,2,4,4,2,0,0,0,0,0,0,0,0,0,0,0,0,0,0,0,0,0,0,0,0,0,0,0,0,0,0,0,0,0,0,0,0,0,0],"split_type":[0,0,0,0,0,0,0,0,0,0,0,0,0,0,0,0,0,0,0,0,0,0,0,0,0,0,0,0,0,0,0,0,0,0,0,0,0,0,0,0,0,0,0,0,0,0,0,0,0,0,0,0,0,0,0,0,0,0,0,0,0,0,0,0,0,0,0,0,0,0,0,0,0,0,0,0,0,0,0,0,0,0,0,0,0,0,0,0,0,0,0,0,0,0,0,0,0,0,0],"sum_hessian":[1.1604867E3,7.049431E2,4.5554355E2,1.9032476E1,6.8591064E2,1.58192005E1,4.3972433E2,1.7549425E1,1.4830501E0,8.60169E1,5.9989374E2,1.2853101E1,2.9661002E0,4.1673706E2,2.2987276E1,6.8467476E1,1.7549425E1,5.840745E2,1.58192005E1,8.156775E0,4.6963253E0,1.7302251E0,1.235875E0,1.9749283E2,2.1924423E2,1.4088976E1,8.8983E0,2.9413826E1,3.905365E1,3.9548001E0,1.3594625E1,4.629588E2,1.2111575E2,5.43785E0,1.03813505E1,8.132058E1,1.1617226E2,1.6437138E2,5.4872852E1,1.9774001E0,6.9209003E0,5.685025E0,2.3728802E1,4.44915E0,3.46045E1,1.4830501E0,2.47175E0,1.0134175E1,3.4604502E0,4.4615088E2,1.6807901E1,7.0692055E1,5.0423702E1,1.235875E0,4.2019753E0,8.651125E0,1.7302251E0,7.9837524E1,1.4830501E0,2.8177952E1,8.79943E1,1.05296555E2,5.9074825E1,4.4244328E1,1.0628526E1,1.7302251E0,5.1906753E0,1.532485E1,8.403951E0,1.235875E0,3.2132752E0,2.9413826E1,5.1906753E0,1.9774001E0,1.4830501E0,1.08757E1,4.3527518E2,1.5077676E1,1.7302251E0,6.42655E1,6.4265504E0,3.7076252E1,1.334745E1,6.772595E1,1.2111575E1,1.730225E1,1.08757E1,6.451268E1,2.3481627E1,1.9526825E1,8.576973E1,1.2111575E1,4.6963253E1,2.8919476E1,1.532485E1,5.1906753E0,5.43785E0,3.4604502E0,1.7302251E0],"tree_param":{"num_deleted":"0","num_feature":"6","num_nodes":"99","size_leaf_vector":"1"}},{"base_weights":[7.1498967E-4,4.8275688E-1,-3.338434E-2,6.8916047E-1,2.6773986E-1,4.592892E-2,-2.2437069E-1,7.442735E-1,-4.5538906E-2,-2.1821643E-1,4.4818866E-1,-6.1415386E-1,6.3565E-2,-6.3767475E-1,-1.7884289E-1,5.453905E-1,2.2555359E-1,6.530087E-1,-1.5459892E-1,7.7934945E-1,-8.236186E-2,1.5579478E-1,-7.4527293E-1,7.6358926E-1,4.6041634E-2,-3.9446455E-1,-1.1415069E0,-9.261664E-2,-4.9896523E-1,6.499394E-1,-1.4335434E-1,-4.5920856E-2,2.0190361E-1,3.7497753E-1,2.613018E-1,-9.0969074E-1,1.23238795E-1,1.10070996E-1,-1.7593919E-1,1.0776566E0,1.2366627E-1,6.803813E-2,-4.5882252E-1,-1.392585E-1,-2.0586899E-1,-2.7725992E-1,1.4075978E-3,1.8404175E-2,-3.3892465E-1,6.417899E-2,-5.3473544E-1,7.84832E-1,-8.9320414E-2,9.825591E-1,-2.210421E-1,-4.986758E-2,-2.6216683E-1,-1.2099566E-1,1.554795E-1,2.887424E-1,4.127504E-1,-1.3631848E-1,4.0713948E-1,2.1447341E-1,2.182406E-2,-3.085397E-2,-9.377928E-1,2.4895489E-1,-3.2102346E-1,2.8110158E-1,-5.6015747E-3,-3.8256666E-1,1.6010787E-1,-3.0097166E-1,-6.236134E-1,2.533209E-1,9.178287E-2,1.2975286E-1,-1.0808599E-1,7.522968E-2,2.9229075E-1,-1.1973473E-1,9.003565E-2,-3.0593187E-2,1.964575E-1,1.3791448E-1,-5.4091066E-2,1.2396445E-1,3.3200454E-2,-3.566427E-2,1.0763592E-2,-5.759394E-2,2.9444593E-1,-2.2387569E-1,2.9826691E-2,-1.0817849E-1,6.1152786E-2,-1.8512122E-1,5.648556E-3,4.8428874E-2,-9.6524134E-2,-9.073016E-2,1.6980511E-1,-2.1988364E-1,-9.3794174E-2],"categories":[],"categories_nodes":[],"categories_segments":[],"categories_sizes":[],"default_left":[0,0,0,0,0,0,0,0,0,0,0,0,0,0,0,0,0,0,0,0,0,0,0,0,0,0,0,0,0,0,0,0,0,0,0,0,0,0,0,0,0,0,0,0,0,0,0,0,0,0,0,0,0,0,0,0,0,0,0,0,0,0,0,0,0,0,0,0,0,0,0,0,0,0,0,0,0,0,0,0,0,0,0,0,0,0,0,0,0,0,0,0,0,0,0,0,0,0,0,0,0,0,0,0,0],"id":1,"left_children":[1,3,5,7,9,11,13,15,-1,17,19,21,23,25,27,29,-1,31,-1,33,35,-1,37,39,41,43,45,47,49,51,-1,-1,-1,53,-1,55,-1,57,-1,59,61,63,65,67,-1,-1,-1,69,71,-1,73,75,77,79,81,-1,-1,-1,-1,-1,83,-1,85,87,89,91,93,-1,95,-1,97,99,-1,101,103,-1,-1,-1,-1,-1,-1,-1,-1,-1,-1,-1,-1,-1,-1,-1,-1,-1,-1,-1,-1,-1,-1,-1,-1,-1,-1,-1,-1,-1,-1],"loss_changes":[1.9346912E1,3.2665062E0,1.6661798E1,2.1421566E0,3.5809288E0,9.090659E0,5.958637E0,2.2115192E0,0E0,6.028403E0,5.2108397E0,4.293709E0,9.265739E0,3.4259176E0,8.016422E0,3.9416904E0,0E0,1.8013484E0,0E0,3.3750248E0,7.589263E0,0E0,2.2917643E0,3.5752773E0,8.257598E0,3.560939E0,2.7567844E0,6.3322926E0,1.9826155E0,2.5481567E0,0E0,0E0,0E0,4.440691E0,0E0,1.2549953E0,0E0,2.1315641E0,0E0,2.3851757E0,1.9220538E0,4.8049517E0,6.337092E0,4.7929273E0,0E0,0E0,0E0,5.3493376E0,3.8831291E0,0E0,1.0494843E0,2.7345686E0,1.9263245E0,1.1808395E0,1.968757E0,0E0,0E0,0E0,0E0,0E0,2.0026124E0,0E0,1.3260715E0,3.2446203E0,3.4759831E0,7.162129E0,3.0526562E0,0E0,2.4022565E0,0E0,4.9669175E0,4.4891577E0,0E0,3.6046445E0,2.5902596E0,0E0,0E0,0E0,0E0,0E0,0E0,0E0,0E0,0E0,0E0,0E0,0E0,0E0,0E0,0E0,0E0,0E0,0E0,0E0,0E0,0E0,0E0,0E0,0E0,0E0,0E0,0E0,0E0,0E0,0E0],"parents":[2147483647,0,0,1,1,2,2,3,3,4,4,5,5,6,6,7,7,9,9,10,10,11,11,12,12,13,13,14,14,15,15,17,17,19,19,20,20,22,22,23,23,24,24,25,25,26,26,27,27,28,28,29,29,33,33,35,35,37,37,39,39,40,40,41,41,42,42,43,43,47,47,48,48,50,50,51,51,52,52,53,53,54,54,60,60,62,62,63,63,64,64,65,65,66,66,68,68,70,70,71,71,73,73,74,74],"right_children":[2,4,6,8,10,12,14,16,-1,18,20,22,24,26,28,30,-1,32,-1,34,36,-1,38,40,42,44,46,48,50,52,-1,-1,-1,54,-1,56,-1,58,-1,60,62,64,66,68,-1,-1,-1,70,72,-1,74,76,78,80,82,-1,-1,-1,-1,-1,84,-1,86,88,90,92,94,-1,96,-1,98,100,-1,102,104,-1,-1,-1,-1,-1,-1,-1,-1,-1,-1,-1,-1,-1,-1,-1,-1,-1,-1,-1,-1,-1,-1,-1,-1,-1,-1,-1,-1,-1,-1],"split_conditions":[-5.733485E-4,-7.824402E-4,1.1363636E0,4.5293334E-4,1.1317909E0,-4.898954E-4,1.1376237E0,1.1344886E-4,-4.5538906E-2,1.128802E0,1.1387361E0,-6.776568E-4,1.1255859E0,5.5532455E-5,1.1392581E0,1.1267926E-4,2.2555359E-1,1.1268623E0,-1.5459892E-1,1.13315604E-4,1.137362E0,1.5579478E-1,1.1323674E0,2.2575968E-4,6.9570926E-4,1.1373972E0,1.6300556E-4,1.1378352E-4,-5.6921225E-4,1.1359259E0,-1.4335434E-1,-4.5920856E-2,2.0190361E-1,-2.2660552E-4,2.613018E-1,-7.1544E-4,1.23238795E-1,1.1296971E0,-1.7593919E-1,6.6461554E-4,3.383255E-4,-1.1351739E-4,1.1375085E0,-1.9451769E-4,-2.0586899E-1,-2.7725992E-1,1.4075978E-3,1.1376405E0,9.1626705E-4,6.417899E-2,1.1405689E0,-3.394509E-4,-1.6344936E-3,-3.4003117E-4,1.1372734E0,-4.986758E-2,-2.6216683E-1,-1.2099566E-1,1.554795E-1,2.887424E-1,1.1283647E0,-1.3631848E-1,1.8673994E-3,1.1322335E0,1.1301401E0,1.1336337E0,1.4727957E-3,2.4895489E-1,8.9546975E-6,2.8110158E-1,1.1364428E0,1.1381704E0,1.6010787E-1,9.595158E-5,1.1409212E0,2.533209E-1,9.178287E-2,1.2975286E-1,-1.0808599E-1,7.522968E-2,2.9229075E-1,-1.1973473E-1,9.003565E-2,-3.0593187E-2,1.964575E-1,1.3791448E-1,-5.4091066E-2,1.2396445E-1,3.3200454E-2,-3.566427E-2,1.0763592E-2,-5.759394E-2,2.9444593E-1,-2.2387569E-1,2.9826691E-2,-1.0817849E-1,6.1152786E-2,-1.8512122E-1,5.648556E-3,4.8428874E-2,-9.6524134E-2,-9.073016E-2,1.6980511E-1,-2.1988364E-1,-9.3794174E-2],"split_indices":[2,2,5,0,5,2,4,0,0,5,4,0,5,2,5,0,0,5,0,0,5,0,4,0,2,4,2,0,0,5,0,0,0,0,0,2,0,5,0,2,0,0,4,2,0,0,0,4,2,0,4,0,2,0,4,0,0,0,0,0,4,0,2,4,4,5,2,0,2,0,5,4,0,2,4,0,0,0,0,0,0,0,0,0,0,0,0,0,0,0,0,0,0,0,0,0,0,0,0,0,0,0,0,0,0],"split_type":[0,0,0,0,0,0,0,0,0,0,0,0,0,0,0,0,0,0,0,0,0,0,0,0,0,0,0,0,0,0,0,0,0,0,0,0,0,0,0,0,0,0,0,0,0,0,0,0,0,0,0,0,0,0,0,0,0,0,0,0,0,0,0,0,0,0,0,0,0,0,0,0,0,0,0,0,0,0,0,0,0,0,0,0,0,0,0,0,0,0,0,0,0,0,0,0,0,0,0,0,0,0,0,0,0],"sum_hessian":[1.1750319E3,7.6760284E1,1.0982716E3,3.8039482E1,3.87208E1,7.765455E2,3.217261E2,3.606011E1,1.9793755E0,1.04281225E1,2.8292675E1,1.9327637E1,7.5721783E2,3.0632874E1,2.9109323E2,2.5340498E1,1.0719609E1,3.9881144E0,6.440008E0,1.7130905E1,1.116177E1,1.2375731E0,1.8090063E1,1.7452421E1,7.3976544E2,2.186238E1,8.770496E0,2.3033965E2,6.0753593E1,2.3849985E1,1.4905121E0,1.2498403E0,2.738274E0,1.0662933E1,6.467973E0,4.971532E0,6.190238E0,2.4814649E0,1.5608598E1,1.1247989E1,6.204433E0,7.097092E2,3.0056185E1,1.646372E1,5.398658E0,7.0589886E0,1.7115074E0,1.5941173E2,7.0927925E1,2.206613E0,5.854698E1,2.0117504E1,3.7324808E0,4.9591E0,5.7038336E0,2.4915566E0,2.479975E0,1.2430017E0,1.2384632E0,6.4988375E0,4.7491508E0,1.2497765E0,4.9546566E0,1.693766E2,5.4033264E2,1.6435335E1,1.3620851E1,1.2322905E0,1.523143E1,1.7328888E0,1.5767883E2,6.895131E1,1.9766102E0,1.7336212E1,4.121077E1,6.953116E0,1.3164389E1,1.249672E0,2.4828086E0,2.9760559E0,1.9830437E0,3.7193773E0,1.9844562E0,2.7495084E0,1.9996424E0,3.4845576E0,1.470099E0,1.6831625E1,1.5254497E2,7.383937E1,4.6649326E2,1.472492E1,1.7104138E0,1.1645463E1,1.9753879E0,1.1377418E1,3.8540123E0,4.6598334E0,1.53019E2,9.322697E0,5.9628616E1,1.5838885E1,1.4973269E0,8.610019E0,3.260075E1],"tree_param":{"num_deleted":"0","num_feature":"6","num_nodes":"105","size_leaf_vector":"1"}},{"base_weights":[2.6359214E-2,1.348022E-1,-8.844799E-2,7.592237E-1,1.1352683E-1,5.145087E-1,-1.11507945E-1,9.156481E-1,-1.4135472E-1,3.115794E-2,2.5134456E-1,-5.1107967E-1,9.9350333E-1,2.9200874E-2,-1.8773344E-1,2.0957032E-1,2.7310655E-1,1.3001366E-1,-2.4442197E-1,3.7276414E-1,-9.9824734E-2,1.23868026E-1,-1.9321442E-1,1.1447113E0,-4.599091E-2,-1.974717E-2,6.3561326E-1,-2.398201E-2,-3.1766036E-1,-6.561542E-2,1.7810975E-1,6.9037184E-2,5.884558E-1,-7.704876E-1,-7.780937E-2,2.2997843E-1,3.3997136E-1,2.3856036E-1,-6.187895E-1,4.2060006E-2,2.6258174E-1,-4.8565067E-2,7.234532E-1,-1.12382546E-1,1.0900724E0,2.1651036E-1,-3.021787E-1,-8.778671E-1,-2.5216925E-1,1.1477432E-1,-2.942597E-1,-1.4861217E-1,9.4227535E-1,-4.597232E-1,-1.1988424E0,7.7462755E-2,-7.3793113E-1,4.061339E-1,-2.6524039E-2,5.727691E-2,1.0902895E0,-2.3568273E-1,-3.980561E-1,2.1616718E-1,-1.4859551E-1,-5.692953E-2,2.658406E-1,-6.514415E-1,1.2517747E-1,1.3750546E0,-4.778531E-2,-4.0516112E-2,8.070042E-1,-8.713592E-1,-1.9993426E-1,-9.5684636E-1,-1.6554572E-3,3.8409793E-1,-2.9246348E-1,1.1729528E-2,1.4788705E-1,2.3930529E-1,-8.546547E-2,-1.63429E-1,1.3929543E-1,2.9968467E-1,1.3309734E-2,-1.6690632E-2,-2.050029E-1,-2.7031308E-1,-2.4392588E-2,4.0328868E-2,-1.22177176E-1,-2.0243953E-1,8.256463E-2,4.8061024E-2,1.3144848E-1,-8.8783E-2,1.3117301E-1,5.490337E-2,-1.2948693E-1,2.8714684E-1,1.942045E-2,3.4498017E-2,-1.5498814E-1,-3.3822894E-2,1.2171942E-1,-4.6950406E-3,-6.8257265E-2,2.7117496E-2,-2.2579578E-1,3.2795992E-1,5.912153E-2,-2.7601773E-2,1.36031E-1,5.116793E-2,2.0810013E-1,-6.666665E-2,-2.5086978E-1,-6.6125795E-2,6.045072E-2,-3.520026E-2,-2.0758298E-1,-4.2723782E-2,2.0908764E-1,-9.373218E-2,-2.5868414E-2],"categories":[],"categories_nodes":[],"categories_segments":[],"categories_sizes":[],"default_left":[0,0,0,0,0,0,0,0,0,0,0,0,0,0,0,0,0,0,0,0,0,0,0,0,0,0,0,0,0,0,0,0,0,0,0,0,0,0,0,0,0,0,0,0,0,0,0,0,0,0,0,0,0,0,0,0,0,0,0,0,0,0,0,0,0,0,0,0,0,0,0,0,0,0,0,0,0,0,0,0,0,0,0,0,0,0,0,0,0,0,0,0,0,0,0,0,0,0,0,0,0,0,0,0,0,0,0,0,0,0,0,0,0,0,0,0,0,0,0,0,0,0,0,0,0,0,0],"id":2,"left_children":[1,3,5,7,9,11,13,15,-1,17,19,21,23,25,27,-1,29,31,33,35,37,-1,-1,39,-1,41,43,45,47,-1,-1,49,51,53,55,-1,57,59,61,-1,-1,63,65,67,69,71,73,75,77,79,81,83,85,87,89,91,93,95,97,99,101,-1,103,105,107,-1,-1,109,-1,111,-1,113,115,117,119,121,-1,123,125,-1,-1,-1,-1,-1,-1,-1,-1,-1,-1,-1,-1,-1,-1,-1,-1,-1,-1,-1,-1,-1,-1,-1,-1,-1,-1,-1,-1,-1,-1,-1,-1,-1,-1,-1,-1,-1,-1,-1,-1,-1,-1,-1,-1,-1,-1,-1,-1],"loss_changes":[1.4632603E1,7.941931E0,7.99719E0,5.1729345E0,6.639532E0,1.092864E1,5.9134264E0,1.2656794E0,0E0,1.0047798E1,9.371432E0,4.411384E0,3.0010557E0,5.783241E0,7.5966187E0,0E0,1.9513774E0,7.5418234E0,8.478302E0,3.7599487E0,1.0163182E1,0E0,0E0,1.8202839E0,0E0,3.9087412E0,5.0687275E0,1.07169695E1,7.0872803E0,0E0,0E0,4.030556E0,8.409553E0,2.5530329E0,7.754281E0,0E0,3.8348618E0,5.379465E0,2.345931E0,0E0,0E0,4.667614E0,4.5394444E0,2.9570584E0,3.7920275E0,1.3080892E1,4.1458707E0,1.3964281E0,4.7210035E0,7.4720984E0,5.902497E0,6.8676887E0,1.0401272E1,3.1340206E0,1.3453598E0,5.3973045E0,4.96112E0,5.4073944E0,7.427447E0,4.788071E0,1.9636068E0,0E0,3.972507E0,7.422551E0,3.0692408E0,0E0,0E0,1.7287394E0,0E0,1.7094898E0,0E0,4.3693123E0,3.0953674E0,1.8498755E0,4.3153877E0,1.0033894E0,0E0,4.6262374E0,4.814578E0,0E0,0E0,0E0,0E0,0E0,0E0,0E0,0E0,0E0,0E0,0E0,0E0,0E0,0E0,0E0,0E0,0E0,0E0,0E0,0E0,0E0,0E0,0E0,0E0,0E0,0E0,0E0,0E0,0E0,0E0,0E0,0E0,0E0,0E0,0E0,0E0,0E0,0E0,0E0,0E0,0E0,0E0,0E0,0E0,0E0,0E0,0E0,0E0],"parents":[2147483647,0,0,1,1,2,2,3,3,4,4,5,5,6,6,7,7,9,9,10,10,11,11,12,12,13,13,14,14,16,16,17,17,18,18,19,19,20,20,23,23,25,25,26,26,27,27,28,28,31,31,32,32,33,33,34,34,36,36,37,37,38,38,41,41,42,42,43,43,44,44,45,45,46,46,47,47,48,48,49,49,50,50,51,51,52,52,53,53,54,54,55,55,56,56,57,57,58,58,59,59,60,60,62,62,63,63,64,64,67,67,69,69,71,71,72,72,73,73,74,74,75,75,77,77,78,78],"right_children":[2,4,6,8,10,12,14,16,-1,18,20,22,24,26,28,-1,30,32,34,36,38,-1,-1,40,-1,42,44,46,48,-1,-1,50,52,54,56,-1,58,60,62,-1,-1,64,66,68,70,72,74,76,78,80,82,84,86,88,90,92,94,96,98,100,102,-1,104,106,108,-1,-1,110,-1,112,-1,114,116,118,120,122,-1,124,126,-1,-1,-1,-1,-1,-1,-1,-1,-1,-1,-1,-1,-1,-1,-1,-1,-1,-1,-1,-1,-1,-1,-1,-1,-1,-1,-1,-1,-1,-1,-1,-1,-1,-1,-1,-1,-1,-1,-1,-1,-1,-1,-1,-1,-1,-1,-1,-1],"split_conditions":[1.1349394E0,1.1255859E0,3.054319E1,1.1337858E0,1.1351367E0,1.1381283E0,-1.1353028E-4,7.056734E1,-1.4135472E-1,1.1324382E0,5.9729942E1,1.1352533E0,1.1391152E0,-1.13611226E-4,5.2026226E1,2.0957032E-1,7.342533E1,1.131971E0,1.1339598E0,-6.776568E-4,1.1345876E0,1.23868026E-1,-1.9321442E-1,-4.5444648E-4,-4.599091E-2,1.1426588E0,1.1355951E0,1.1382285E0,1.1364623E0,-6.561542E-2,1.7810975E-1,1.1333811E0,-1.1322322E-4,5.5027145E1,1.1339825E0,2.2997843E-1,1.1374478E0,3.4129628E-4,1.1346475E0,4.2060006E-2,2.6258174E-1,1.1375701E0,4.327426E1,5.0787724E1,1.1362875E0,1.1376237E0,1.1383806E0,2.2732734E-4,1.1368304E0,1.1329669E0,1.1279222E0,5.239527E1,6.0692207E1,1.1329824E0,1.13451E-4,2.2689773E-4,1.1343716E0,1.1361094E0,1.1357081E-4,1.1370481E0,1.1373545E0,-2.3568273E-1,1.1347517E0,1.1359035E0,-1.1396873E-4,-5.692953E-2,2.658406E-1,-1.135854E-4,1.2517747E-1,-1.13532114E-4,-4.778531E-2,5.0787724E1,4.282761E1,1.1267926E-4,4.9583935E1,5.3177692E1,-1.6554572E-3,1.1360951E-4,1.1383806E0,1.1729528E-2,1.4788705E-1,2.3930529E-1,-8.546547E-2,-1.63429E-1,1.3929543E-1,2.9968467E-1,1.3309734E-2,-1.6690632E-2,-2.050029E-1,-2.7031308E-1,-2.4392588E-2,4.0328868E-2,-1.22177176E-1,-2.0243953E-1,8.256463E-2,4.8061024E-2,1.3144848E-1,-8.8783E-2,1.3117301E-1,5.490337E-2,-1.2948693E-1,2.8714684E-1,1.942045E-2,3.4498017E-2,-1.5498814E-1,-3.3822894E-2,1.2171942E-1,-4.6950406E-3,-6.8257265E-2,2.7117496E-2,-2.2579578E-1,3.2795992E-1,5.912153E-2,-2.7601773E-2,1.36031E-1,5.116793E-2,2.0810013E-1,-6.666665E-2,-2.5086978E-1,-6.6125795E-2,6.045072E-2,-3.520026E-2,-2.0758298E-1,-4.2723782E-2,2.0908764E-1,-9.373218E-2,-2.5868414E-2],"split_indices":[5,5,3,4,4,4,0,3,0,5,3,5,5,0,3,0,3,5,4,0,5,0,0,0,0,4,5,4,4,0,0,4,0,3,5,0,4,0,5,0,0,4,3,3,5,4,4,0,4,4,5,3,3,5,0,0,5,4,0,4,4,0,5,5,0,0,0,0,0,0,0,3,3,0,3,3,0,0,4,0,0,0,0,0,0,0,0,0,0,0,0,0,0,0,0,0,0,0,0,0,0,0,0,0,0,0,0,0,0,0,0,0,0,0,0,0,0,0,0,0,0,0,0,0,0,0,0],"split_type":[0,0,0,0,0,0,0,0,0,0,0,0,0,0,0,0,0,0,0,0,0,0,0,0,0,0,0,0,0,0,0,0,0,0,0,0,0,0,0,0,0,0,0,0,0,0,0,0,0,0,0,0,0,0,0,0,0,0,0,0,0,0,0,0,0,0,0,0,0,0,0,0,0,0,0,0,0,0,0,0,0,0,0,0,0,0,0,0,0,0,0,0,0,0,0,0,0,0,0,0,0,0,0,0,0,0,0,0,0,0,0,0,0,0,0,0,0,0,0,0,0,0,0,0,0,0,0],"sum_hessian":[1.1733483E3,6.0330896E2,5.700393E2,1.8735846E1,5.845731E2,2.021293E1,5.498264E2,1.726866E1,1.4671859E0,3.6665952E2,2.179136E2,6.4136043E0,1.3799327E1,1.9341255E2,3.5641385E2,1.3798761E1,3.4698977E0,2.7024554E2,9.641396E1,1.618806E2,5.6033005E1,1.7369574E0,4.6766467E0,1.2338738E1,1.4605888E0,1.7986198E2,1.355056E1,1.5820595E2,1.982079E2,1.995548E0,1.4743497E0,2.3953592E2,3.0709608E1,2.2319029E1,7.409493E1,5.1750975E0,1.567055E2,3.424455E1,2.1788454E1,2.225486E0,1.0113253E1,1.7404787E2,5.8141227E0,5.4058175E0,8.144742E0,8.497202E1,7.3233925E1,1.9447851E1,1.7876006E2,2.1335922E2,2.6176704E1,1.0148496E1,2.0561113E1,1.4136476E1,8.182553E0,6.0699913E1,1.3395021E1,1.326503E2,2.4055199E1,2.9114927E1,5.129622E0,4.935891E0,1.6852564E1,4.7411507E1,1.2663636E2,2.3812644E0,3.4328585E0,3.192428E0,2.2133892E0,6.6780815E0,1.4666607E0,5.9851585E1,2.5120438E1,1.0006552E1,6.322737E1,1.7736609E1,1.7112443E0,1.0138317E1,1.6862173E2,1.967728E2,1.6586428E1,1.4901668E0,2.4686537E1,5.684595E0,4.4639006E0,1.2140181E1,8.420932E0,9.176217E0,4.9602585E0,6.9428444E0,1.2397089E0,5.202195E1,8.677962E0,1.0914181E1,2.4808407E0,8.1069824E1,5.158048E1,1.5142554E1,8.912644E0,2.2721174E1,6.3937535E0,3.4752855E0,1.6543366E0,6.919625E0,9.932939E0,2.4210787E1,2.320072E1,7.7460556E1,4.91758E1,1.4759631E0,1.7164649E0,4.9459324E0,1.7321494E0,5.3431805E1,6.4197817E0,8.098871E0,1.7021566E1,4.938818E0,5.067734E0,5.044155E1,1.2785822E1,1.9664973E0,1.577011E1,5.680917E0,4.4574003E0,8.0161415E1,8.846032E1],"tree_param":{"num_deleted":"0","num_feature":"6","num_nodes":"127","size_leaf_vector":"1"}},{"base_weights":[2.4464633E-2,4.4707686E-1,2.171166E-3,9.73964E-1,3.2363224E-1,6.568396E-1,-1.2399485E-2,-1.3736281E-2,2.4433123E-1,-2.5448465E-1,4.6591014E-1,1.9022404E-1,3.1808966E-1,5.0628986E-2,-1.10844195E-1,2.913712E-1,-2.1333432E-1,2.3828258E-1,8.6668545E-1,7.882335E-1,-6.8422383E-1,5.718657E-2,-2.3674142E-1,-3.8268816E-1,-6.759545E-2,-1.4439754E-1,1.674096E-1,-1.2634356E-2,7.6289195E-1,2.2934608E-1,2.134436E-1,2.0991252E-1,-2.2641644E-2,-2.3138379E-1,4.0882796E-2,4.329288E-2,6.179257E-1,-2.718559E-1,-2.4734557E-1,1.6062012E-1,-1.3066998E-1,7.42189E-2,-1.5088718E-1,2.7003336E-1,-6.097512E-1,-6.831547E-2,1.0409898E0,-8.2567856E-2,1.5439622E-1,2.2264689E-1,-2.3666255E-3,1.2126962E0,1.20887995E-1,-1.9383849E-1,-2.4287052E-1,4.6153226E-1,-4.1513842E-1,-6.855293E-1,-4.4956904E-2,3.557738E-3,1.4842199E-1,-2.1222754E-1,-2.294901E-2,2.52619E-1,-6.2022465E-3,2.9108722E-2,1.16744034E-1,1.1418757E-2,-4.8318546E-2,3.1083575E-2,2.9155087E-1,-1.0825359E-1,8.9958146E-2,2.16765E-2,-9.795851E-2,1.7751195E-1,4.5340415E-2,-1.3565624E-1,-6.120091E-3,-4.9505282E-2,-1.6517605E-1,6.793542E-4,-9.011652E-2],"categories":[],"categories_nodes":[],"categories_segments":[],"categories_sizes":[],"default_left":[0,0,0,0,0,0,0,0,0,0,0,0,0,0,0,0,0,0,0,0,0,0,0,0,0,0,0,0,0,0,0,0,0,0,0,0,0,0,0,0,0,0,0,0,0,0,0,0,0,0,0,0,0,0,0,0,0,0,0,0,0,0,0,0,0,0,0,0,0,0,0,0,0,0,0,0,0,0,0,0,0,0,0],"id":3,"left_children":[1,3,5,7,9,11,13,-1,-1,15,17,-1,19,21,23,25,-1,27,29,31,33,35,-1,37,39,41,-1,43,45,-1,47,-1,-1,-1,-1,49,51,53,-1,55,57,-1,-1,59,61,-1,63,-1,-1,65,67,69,71,73,-1,75,77,79,81,-1,-1,-1,-1,-1,-1,-1,-1,-1,-1,-1,-1,-1,-1,-1,-1,-1,-1,-1,-1,-1,-1,-1,-1],"loss_changes":[1.1034046E1,3.5017433E0,1.0630477E1,2.8322077E0,4.152524E0,2.1162014E0,6.7707996E0,0E0,0E0,4.891691E0,3.4161644E0,0E0,6.5625534E0,5.453714E0,4.981392E0,1.7770731E0,0E0,3.5249348E0,2.3173037E0,2.2779417E0,2.1756606E0,5.1373367E0,0E0,5.1768084E0,5.327641E0,1.7659562E0,0E0,3.3797846E0,3.0144582E0,0E0,2.2185302E0,0E0,0E0,0E0,0E0,5.306309E0,4.568975E0,3.6496103E0,0E0,1.409956E1,1.3731739E1,0E0,0E0,1.6088319E0,1.3143036E0,0E0,1.744523E0,0E0,0E0,3.575478E0,7.3737855E0,1.6262226E0,2.3778162E0,4.523965E0,0E0,5.120633E0,2.820673E0,2.171608E0,4.9388266E0,0E0,0E0,0E0,0E0,0E0,0E0,0E0,0E0,0E0,0E0,0E0,0E0,0E0,0E0,0E0,0E0,0E0,0E0,0E0,0E0,0E0,0E0,0E0,0E0],"parents":[2147483647,0,0,1,1,2,2,3,3,4,4,5,5,6,6,9,9,10,10,12,12,13,13,14,14,15,15,17,17,18,18,19,19,20,20,21,21,23,23,24,24,25,25,27,27,28,28,30,30,35,35,36,36,37,37,39,39,40,40,43,43,44,44,46,46,49,49,50,50,51,51,52,52,53,53,55,55,56,56,57,57,58,58],"right_children":[2,4,6,8,10,12,14,-1,-1,16,18,-1,20,22,24,26,-1,28,30,32,34,36,-1,38,40,42,-1,44,46,-1,48,-1,-1,-1,-1,50,52,54,-1,56,58,-1,-1,60,62,-1,64,-1,-1,66,68,70,72,74,-1,76,78,80,82,-1,-1,-1,-1,-1,-1,-1,-1,-1,-1,-1,-1,-1,-1,-1,-1,-1,-1,-1,-1,-1,-1,-1,-1],"split_conditions":[-6.267983E-4,1.128802E0,1.1279966E0,1.1270012E0,1.1317273E0,8.427223E-5,1.13738E0,-1.3736281E-2,2.4433123E-1,-7.824402E-4,1.1353028E-4,1.9022404E-1,1.1255859E0,1.1368402E0,1.137699E0,-9.354898E-4,-2.1333432E-1,1.139436E0,1.1412973E0,2.2575968E-4,1.1282314E-4,1.1373144E0,-2.3674142E-1,1.1376677E0,1.1381704E0,1.1333123E0,1.674096E-1,1.1383806E0,1.1347517E0,2.2934608E-1,1.1380002E0,2.0991252E-1,-2.2641644E-2,-2.3138379E-1,4.0882796E-2,-1.135854E-4,-8.46523E-5,1.1365604E0,-2.4734557E-1,1.5981145E-4,1.1383806E0,7.42189E-2,-1.5088718E-1,1.1344793E0,1.1388716E0,-6.831547E-2,1.1387452E0,-8.2567856E-2,1.5439622E-1,3.2207873E-4,1.1349394E0,1.1358566E0,5.793672E-5,-1.0614053E-5,-2.4287052E-1,1.1362033E0,4.0278968E-4,-1.1378352E-4,1.1398709E0,3.557738E-3,1.4842199E-1,-2.1222754E-1,-2.294901E-2,2.52619E-1,-6.2022465E-3,2.9108722E-2,1.16744034E-1,1.1418757E-2,-4.8318546E-2,3.1083575E-2,2.9155087E-1,-1.0825359E-1,8.9958146E-2,2.16765E-2,-9.795851E-2,1.7751195E-1,4.5340415E-2,-1.3565624E-1,-6.120091E-3,-4.9505282E-2,-1.6517605E-1,6.793542E-4,-9.011652E-2],"split_indices":[2,5,4,5,5,2,4,0,0,2,0,0,5,5,4,2,0,4,4,0,0,4,0,4,4,4,0,4,5,0,5,0,0,0,0,0,2,5,0,2,4,0,0,5,4,0,5,0,0,2,5,5,2,2,0,5,2,0,5,0,0,0,0,0,0,0,0,0,0,0,0,0,0,0,0,0,0,0,0,0,0,0,0],"split_type":[0,0,0,0,0,0,0,0,0,0,0,0,0,0,0,0,0,0,0,0,0,0,0,0,0,0,0,0,0,0,0,0,0,0,0,0,0,0,0,0,0,0,0,0,0,0,0,0,0,0,0,0,0,0,0,0,0,0,0,0,0,0,0,0,0,0,0,0,0,0,0,0,0,0,0,0,0,0,0,0,0,0,0],"sum_hessian":[1.17026E3,5.768496E1,1.112575E3,9.641815E0,4.8043144E1,2.3263245E1,1.0893118E3,1.9895667E0,7.6522484E0,9.332757E0,3.871039E1,1.1481364E1,1.1781881E1,6.644125E2,4.248993E2,5.965025E0,3.3677323E0,2.5705206E1,1.3005181E1,8.16541E0,3.6164706E0,6.6185E2,2.5624998E0,5.7243217E1,3.6765607E2,3.7253776E0,2.2396476E0,1.8048605E1,7.656602E0,8.574042E0,4.4311395E0,6.2028737E0,1.9625363E0,2.163653E0,1.4528179E0,6.468987E2,1.4951296E1,5.183473E1,5.4084897E0,7.927556E1,2.883805E2,2.231452E0,1.4939255E0,1.262151E1,5.427095E0,1.4941806E0,6.1624217E0,2.2118592E0,2.2192802E0,1.3048143E2,5.1641724E2,6.1509876E0,8.800308E0,4.89855E1,2.849227E0,5.2194977E1,2.7080582E1,3.7650955E1,2.5072955E2,8.902381E0,3.7191277E0,2.240417E0,3.186678E0,4.9571104E0,1.2053111E0,1.0867759E2,2.180384E1,4.142223E2,1.0219494E2,1.4649252E0,4.686063E0,2.7062778E0,6.0940304E0,2.454972E1,2.443578E1,1.7559345E1,3.463563E1,1.5624626E1,1.1455956E1,9.807532E0,2.7843422E1,2.2491017E2,2.5819382E1],"tree_param":{"num_deleted":"0","num_feature":"6","num_nodes":"83","size_leaf_vector":"1"}},{"base_weights":[-1.5706964E-2,1.8086843E-2,-3.3697614E-1,2.5074768E-1,-1.865769E-2,-4.0859094E-1,5.78808E-1,2.801963E-1,-1.7246604E-1,9.4284284E-1,-2.7264E-2,1.20653726E-1,-4.4836068E-1,2.0942453E-1,-2.6778968E-3,1.5774074E-1,5.6030935E-1,8.528887E-3,2.663634E-1,-4.244163E-1,-4.4319974E-3,-3.257446E-1,-7.9287714E-1,3.63254E-1,-1.355691E-1,1.0043783E0,3.2935384E-1,-1.8414631E-1,-2.2773635E-1,2.8868788E-1,-2.6194999E-2,-4.8250258E-1,3.7823237E-2,-1.0736866E0,4.7499588E-1,1.1765597E-1,6.34388E-1,2.3648265E-1,-4.5487374E-1,-6.647572E-2,1.2323208E0,-5.7002044E-1,5.3124774E-1,-8.540897E-2,-2.4401692E-1,1.0428466E-1,7.2547746E-1,2.6351693E-1,-4.7511388E-2,-1.5383284E-1,-8.5338336E-1,1.574054E-1,-2.1135996E-1,-1.01318516E-1,-2.4751107E-1,2.1215892E-1,-2.0624883E-2,1.4836727E-1,-4.4081803E-2,2.291282E-1,6.1823428E-2,9.517162E-2,-2.3439384E-1,-1.122989E-1,1.5340595E-1,2.797824E-1,-2.9681444E-2,-2.145808E-1,-2.1759642E-2,5.724367E-2,2.0973964E-1,1.3985658E-2,-1.3993858E-1,5.152592E-2,-1.5899077E-1,1.7211597E-1,-4.2741783E-2,-8.508646E-2,8.014589E-2,9.366043E-2,-1.1704125E-2,6.754507E-2,-1.10532954E-1,-1.946855E-1,-2.7234474E-2,-8.48447E-2,6.907009E-2,1.926185E-1,-2.0890105E-1],"categories":[],"categories_nodes":[],"categories_segments":[],"categories_sizes":[],"default_left":[0,0,0,0,0,0,0,0,0,0,0,0,0,0,0,0,0,0,0,0,0,0,0,0,0,0,0,0,0,0,0,0,0,0,0,0,0,0,0,0,0,0,0,0,0,0,0,0,0,0,0,0,0,0,0,0,0,0,0,0,0,0,0,0,0,0,0,0,0,0,0,0,0,0,0,0,0,0,0,0,0,0,0,0,0,0,0,0,0],"id":4,"left_children":[1,3,5,7,9,11,13,15,-1,17,19,-1,21,-1,-1,23,25,-1,-1,27,29,31,33,35,37,39,41,-1,43,45,47,49,51,53,55,57,59,61,63,-1,65,67,69,71,-1,73,75,77,79,81,83,85,-1,87,-1,-1,-1,-1,-1,-1,-1,-1,-1,-1,-1,-1,-1,-1,-1,-1,-1,-1,-1,-1,-1,-1,-1,-1,-1,-1,-1,-1,-1,-1,-1,-1,-1,-1,-1],"loss_changes":[1.2566187E1,8.961622E0,7.4611187E0,4.9279394E0,7.520747E0,4.4054985E0,2.3445983E0,4.71513E0,0E0,2.7666564E0,8.147198E0,0E0,3.942522E0,0E0,0E0,6.0067797E0,3.99784E0,0E0,0E0,4.558381E0,5.435209E0,4.294822E0,9.555008E0,3.8132625E0,5.0313683E0,4.6609898E0,5.614579E0,0E0,5.0243273E0,4.6675487E0,4.909476E0,6.268817E0,3.2468712E0,3.2375584E0,1.9042321E0,6.887073E0,4.2227354E0,7.233333E0,3.3810868E0,0E0,2.9982681E0,1.239048E0,2.7945375E0,3.1817772E0,0E0,6.075652E0,2.3807478E0,5.3222933E0,4.2265463E0,5.8830433E0,1.9723492E0,2.5608747E0,0E0,5.1552305E0,0E0,0E0,0E0,0E0,0E0,0E0,0E0,0E0,0E0,0E0,0E0,0E0,0E0,0E0,0E0,0E0,0E0,0E0,0E0,0E0,0E0,0E0,0E0,0E0,0E0,0E0,0E0,0E0,0E0,0E0,0E0,0E0,0E0,0E0,0E0],"parents":[2147483647,0,0,1,1,2,2,3,3,4,4,5,5,6,6,7,7,9,9,10,10,12,12,15,15,16,16,19,19,20,20,21,21,22,22,23,23,24,24,25,25,26,26,28,28,29,29,30,30,31,31,32,32,33,33,34,34,35,35,36,36,37,37,38,38,40,40,41,41,42,42,43,43,45,45,46,46,47,47,48,48,49,49,50,50,51,51,53,53],"right_children":[2,4,6,8,10,12,14,16,-1,18,20,-1,22,-1,-1,24,26,-1,-1,28,30,32,34,36,38,40,42,-1,44,46,48,50,52,54,56,58,60,62,64,-1,66,68,70,72,-1,74,76,78,80,82,84,86,-1,88,-1,-1,-1,-1,-1,-1,-1,-1,-1,-1,-1,-1,-1,-1,-1,-1,-1,-1,-1,-1,-1,-1,-1,-1,-1,-1,-1,-1,-1,-1,-1,-1,-1,-1,-1],"split_conditions":[6.615566E1,1.1299037E0,1.4727957E-3,6.515739E1,-1.2309632E-3,1.1252835E0,6.8114797E-4,1.190395E-4,-1.7246604E-1,-1.0169364E-3,1.1312057E0,1.20653726E-1,5.6177686E-4,2.0942453E-1,-2.6778968E-3,-9.017441E-5,5.701817E1,8.528887E-3,2.663634E-1,-3.3412655E-4,1.1322912E0,3.403359E-4,7.8282425E1,4.0191597E1,1.1282865E0,1.1266955E0,5.857175E1,-1.8414631E-1,1.1311107E0,1.1320523E0,-5.709698E-4,1.1379647E-4,9.1626705E-4,3.8066506E-4,7.759173E-4,-6.267983E-4,-1.12788824E-4,9.330588E-5,3.3903937E-4,-6.647572E-2,5.596254E-4,2.4211057E-4,1.1292282E0,3.3982357E-4,-2.4401692E-1,3.403359E-4,6.2469677E1,-1.2486373E-3,-6.864542E-4,1.1335715E0,1.1373295E0,3.4158357E-4,-2.1135996E-1,1.136039E0,-2.4751107E-1,2.1215892E-1,-2.0624883E-2,1.4836727E-1,-4.4081803E-2,2.291282E-1,6.1823428E-2,9.517162E-2,-2.3439384E-1,-1.122989E-1,1.5340595E-1,2.797824E-1,-2.9681444E-2,-2.145808E-1,-2.1759642E-2,5.724367E-2,2.0973964E-1,1.3985658E-2,-1.3993858E-1,5.152592E-2,-1.5899077E-1,1.7211597E-1,-4.2741783E-2,-8.508646E-2,8.014589E-2,9.366043E-2,-1.1704125E-2,6.754507E-2,-1.10532954E-1,-1.946855E-1,-2.7234474E-2,-8.48447E-2,6.907009E-2,1.926185E-1,-2.0890105E-1],"split_indices":[3,5,2,3,2,5,1,2,0,1,5,0,1,0,0,2,3,0,0,2,5,1,3,3,5,5,3,0,5,5,1,1,2,2,2,2,1,2,1,0,2,2,5,1,0,1,3,1,2,5,5,2,0,5,0,0,0,0,0,0,0,0,0,0,0,0,0,0,0,0,0,0,0,0,0,0,0,0,0,0,0,0,0,0,0,0,0,0,0],"split_type":[0,0,0,0,0,0,0,0,0,0,0,0,0,0,0,0,0,0,0,0,0,0,0,0,0,0,0,0,0,0,0,0,0,0,0,0,0,0,0,0,0,0,0,0,0,0,0,0,0,0,0,0,0,0,0,0,0,0,0,0,0,0,0,0,0,0,0,0,0,0,0,0,0,0,0,0,0,0,0,0,0,0,0,0,0,0,0,0,0],"sum_hessian":[1.1558756E3,1.0467168E3,1.09158806E2,1.4196864E2,9.047481E2,1.0175532E2,7.403485E0,1.3903839E2,2.9302628E0,7.0634565E0,8.976847E2,3.3122723E0,9.844305E1,3.705191E0,3.6982937E0,9.783256E1,4.120583E1,2.4660168E0,4.59744E0,4.784549E1,8.498392E2,7.40379E1,2.440515E1,5.738569E1,4.044687E1,1.2952551E1,2.8253277E1,1.2534283E1,3.5311207E1,5.7888588E1,7.9195056E2,5.1504005E1,2.2533892E1,2.010536E1,4.2997904E0,3.0863197E1,2.6522491E1,1.8800282E1,2.1646587E1,1.8201576E0,1.1132393E1,4.8453565E0,2.340792E1,3.1831804E1,3.479404E0,4.1575188E1,1.6313402E1,5.349779E1,7.384528E2,2.8055958E1,2.344805E1,2.1086498E1,1.4473947E0,3.132998E0,1.697236E1,1.7210149E0,2.5787754E0,1.04235325E1,2.0439665E1,9.33222E0,1.7190271E1,1.6635168E1,2.165113E0,2.0406439E1,1.2401478E0,9.922078E0,1.210315E0,1.6835338E0,3.161823E0,1.6939606E1,6.468315E0,2.6114304E1,5.717501E0,3.6127888E1,5.447298E0,1.4335003E1,1.9784001E0,8.536279E0,4.496151E1,1.4563741E1,7.2388904E2,1.2635718E1,1.5420239E1,1.9780088E1,3.66796E0,4.8427105E0,1.6243788E1,1.4619943E0,1.6710038E0],"tree_param":{"num_deleted":"0","num_feature":"6","num_nodes":"89","size_leaf_vector":"1"}},{"base_weights":[-3.183942E-2,-1.3557102E-2,-4.739772E-1,5.600787E-1,-2.4900028E-2,-2.716812E-1,-2.134913E-1,2.4579147E-1,1.0054165E-1,5.4441655E-1,-3.450995E-2,-4.8969675E-2,-1.7222811E-1,1.7698641E-1,-4.1030984E-2,1.737496E-1,-6.60991E-2,-5.593261E-3,-2.4049266E-1,1.5572238E-1,-1.679241E-1,-2.5094888E-1,4.2825988E-1,-4.800714E-2,1.7314297E-1,-2.0337434E-1,-8.847661E-1,-1.3465041E-1,3.0169493E-1,8.4614374E-2,-1.7058568E-1,1.9539891E-1,-1.9971658E-2,-3.0666478E-2,-4.9511465E-1,4.7927523E-1,6.6001974E-2,-2.3251975E-1,5.164787E-1,-2.4891181E-1,9.3022816E-2,9.9862164E-1,-5.4985035E-2,-5.4592025E-2,1.3938114E-1,5.2010063E-3,-2.3066549E-2,1.6924277E-1,-1.2534672E-1,6.0188115E-2,2.1969974E-1,2.4391398E-2,-1.5188329E-1,-1.1385906E-1,-3.500263E-2,-7.523116E-2,1.9484915E-1,2.5431797E-1,5.2003216E-2,-1.4027242E-1,8.1341326E-2],"categories":[],"categories_nodes":[],"categories_segments":[],"categories_sizes":[],"default_left":[0,0,0,0,0,0,0,0,0,0,0,0,0,0,0,0,0,0,0,0,0,0,0,0,0,0,0,0,0,0,0,0,0,0,0,0,0,0,0,0,0,0,0,0,0,0,0,0,0,0,0,0,0,0,0,0,0,0,0,0,0],"id":5,"left_children":[1,3,5,7,9,11,-1,-1,13,15,17,19,-1,-1,21,-1,-1,23,25,27,-1,29,31,33,35,37,39,-1,41,43,-1,-1,-1,45,47,49,51,53,55,-1,-1,57,59,-1,-1,-1,-1,-1,-1,-1,-1,-1,-1,-1,-1,-1,-1,-1,-1,-1,-1],"loss_changes":[9.323868E0,7.2328997E0,5.2091627E0,6.502023E0,5.9762974E0,4.618449E0,0E0,0E0,1.576134E0,5.4331293E0,6.382495E0,4.472376E0,0E0,0E0,1.3587687E0,0E0,0E0,7.140866E0,2.9746985E0,2.8838358E0,0E0,1.972355E0,1.3422829E0,5.886481E0,5.893965E0,2.7641807E0,3.9239397E0,0E0,4.908928E0,1.7117839E0,0E0,0E0,0E0,3.5240963E0,5.536094E0,4.823905E0,6.327088E0,2.259479E0,2.4971895E0,0E0,0E0,1.0126739E0,4.4227266E0,0E0,0E0,0E0,0E0,0E0,0E0,0E0,0E0,0E0,0E0,0E0,0E0,0E0,0E0,0E0,0E0,0E0,0E0],"parents":[2147483647,0,0,1,1,2,2,3,3,4,4,5,5,8,8,9,9,10,10,11,11,14,14,17,17,18,18,19,19,21,21,22,22,23,23,24,24,25,25,26,26,28,28,29,29,33,33,34,34,35,35,36,36,37,37,38,38,41,41,42,42],"right_children":[2,4,6,8,10,12,-1,-1,14,16,18,20,-1,-1,22,-1,-1,24,26,28,-1,30,32,34,36,38,40,-1,42,44,-1,-1,-1,46,48,50,52,54,56,-1,-1,58,60,-1,-1,-1,-1,-1,-1,-1,-1,-1,-1,-1,-1,-1,-1,-1,-1,-1,-1],"split_conditions":[1.1395749E0,-9.354898E-4,1.14073286E-4,-2.269535E-4,1.1255859E0,5.392937E1,-2.134913E-1,2.4579147E-1,1.1275103E0,7.056734E1,6.402862E1,1.14019E0,-1.7222811E-1,1.7698641E-1,1.1346614E0,1.737496E-1,-6.60991E-2,1.9117237E-4,5.6531176E-4,-3.0435112E-4,-1.679241E-1,1.1333772E0,1.1348519E0,5.9861526E1,5.6596973E1,1.4727957E-3,1.1365604E0,-1.3465041E-1,-5.608387E-5,1.1317273E0,-1.7058568E-1,1.9539891E-1,-1.9971658E-2,-5.3439187E-5,1.12833E0,5.56337E1,7.1993005E-4,2.5054227E-4,-1.14060276E-4,-2.4891181E-1,9.3022816E-2,1.1399184E0,2.753021E-6,-5.4592025E-2,1.3938114E-1,5.2010063E-3,-2.3066549E-2,1.6924277E-1,-1.2534672E-1,6.0188115E-2,2.1969974E-1,2.4391398E-2,-1.5188329E-1,-1.1385906E-1,-3.500263E-2,-7.523116E-2,1.9484915E-1,2.5431797E-1,5.2003216E-2,-1.4027242E-1,8.1341326E-2],"split_indices":[5,2,0,0,5,3,0,0,5,3,3,5,0,0,5,0,0,2,0,2,0,5,5,3,3,2,5,0,2,5,0,0,0,2,5,3,2,2,0,0,0,5,2,0,0,0,0,0,0,0,0,0,0,0,0,0,0,0,0,0,0],"split_type":[0,0,0,0,0,0,0,0,0,0,0,0,0,0,0,0,0,0,0,0,0,0,0,0,0,0,0,0,0,0,0,0,0,0,0,0,0,0,0,0,0,0,0,0,0,0,0,0,0,0,0,0,0,0,0,0,0,0,0,0,0],"sum_hessian":[1.1532673E3,1.1084631E3,4.4804096E1,2.0555414E1,1.0879077E3,3.4501526E1,1.0302568E1,7.6891475E0,1.2866266E1,1.7134993E1,1.0707728E3,2.582668E1,8.674848E0,1.1643573E0,1.1701909E1,1.2506031E1,4.628962E0,9.3985876E2,1.3091403E2,2.1153328E1,4.673352E0,8.4067545E0,3.295155E0,7.601965E2,1.7966226E2,1.2502658E2,5.8874493E0,2.6263232E0,1.8527004E1,5.949658E0,2.4570963E0,1.1991935E0,2.0959616E0,7.3284247E2,2.7354052E1,4.5676945E1,1.3398532E2,1.2081213E2,4.2144494E0,4.7100654E0,1.1773839E0,5.6627107E0,1.2864294E1,4.1059856E0,1.8436724E0,4.3941327E2,2.9342917E2,1.959144E0,2.5394907E1,3.6617268E1,9.059677E0,1.26277245E2,7.7080717E0,1.6322592E1,1.0448954E2,1.4890735E0,2.725376E0,3.6077704E0,2.0549405E0,5.1437845E0,7.720509E0],"tree_param":{"num_deleted":"0","num_feature":"6","num_nodes":"61","size_leaf_vector":"1"}},{"base_weights":[-1.5376374E-2,-4.1348794E-3,-2.6240504E-1,4.2502847E-2,-7.825413E-2,-5.891894E-1,4.626081E-2,1.7607038E-1,-1.1595746E-2,-4.041211E-1,-3.161118E-2,-1.9158351E-1,-1.1406876E0,-1.9756423E-1,4.8027396E-1,-2.0076083E-1,2.156717E-1,1.2577961E-1,-2.1781353E-2,-3.1319916E-1,-2.4395573E-1,1.295476E-1,-8.295091E-2,6.168078E-1,-6.7803025E-1,-2.7485082E-1,1.2578799E-3,1.5265995E-1,-1.834925E-1,-1.5376928E-1,2.5262356E-1,1.8390888E-1,8.8479394E-1,-3.030603E-1,1.5719755E-2,-3.5790798E-1,1.4293616E-1,3.5798243E-1,-1.7603439E-1,-6.923931E-1,-1.3869169E-2,2.4285033E-1,-1.0168209E-1,-2.0976906E-1,3.6656756E-3,5.768205E-1,-4.4073112E-2,3.355051E-2,-1.3460958E-1,2.463509E-1,-9.683767E-2,2.7611813E-1,6.1049663E-2,-6.451084E-2,-7.898405E-1,3.1619966E-2,-4.6400997E-1,-4.0647903E-1,6.936299E-2,-3.283317E-1,4.7447616E-1,-5.998239E-1,1.8694554E-1,8.160907E-2,-1.5591931E-1,2.4496387E-1,-2.911945E-2,1.291116E-1,-1.3893016E-1,-5.0992645E-2,1.9860528E-1,-2.1909057E-1,3.1591073E-1,-8.570409E-3,6.582637E-2,-9.128697E-2,5.023695E-2,1.00418665E-1,-1.10411026E-1,5.752511E-3,-2.301712E-1,-1.8733983E-1,1.1111746E-1,-1.4158003E-1,7.694591E-3,-2.593397E-2,-2.4548756E-1,-5.472439E-2,-1.8642566E-1,7.146349E-2,-1.9919215E-1,-8.281567E-2,1.1019941E-1,-2.1760927E-1,-1.7459093E-2,-1.8800579E-1,7.457762E-2,-9.479276E-2,1.2421323E-1,-1.3985498E-1,1.8288785E-5,1.0349897E-1,-9.1142856E-2],"categories":[],"categories_nodes":[],"categories_segments":[],"categories_sizes":[],"default_left":[0,0,0,0,0,0,0,0,0,0,0,0,0,0,0,0,0,0,0,0,0,0,0,0,0,0,0,0,0,0,0,0,0,0,0,0,0,0,0,0,0,0,0,0,0,0,0,0,0,0,0,0,0,0,0,0,0,0,0,0,0,0,0,0,0,0,0,0,0,0,0,0,0,0,0,0,0,0,0,0,0,0,0,0,0,0,0,0,0,0,0,0,0,0,0,0,0,0,0,0,0,0,0],"id":6,"left_children":[1,3,5,7,9,11,13,15,17,19,21,23,25,27,29,-1,31,-1,33,35,-1,37,39,41,43,-1,-1,45,-1,47,-1,49,51,53,55,57,-1,59,61,63,65,-1,-1,-1,67,69,71,-1,-1,73,75,-1,77,79,81,83,85,87,-1,89,91,93,95,97,-1,-1,99,-1,-1,-1,-1,-1,101,-1,-1,-1,-1,-1,-1,-1,-1,-1,-1,-1,-1,-1,-1,-1,-1,-1,-1,-1,-1,-1,-1,-1,-1,-1,-1,-1,-1,-1,-1],"loss_changes":[3.2143397E0,3.8351603E0,5.109186E0,4.923087E0,6.499711E0,5.163823E0,2.9348295E0,9.392481E0,3.1820054E0,3.5904074E0,3.1209264E0,6.4995418E0,2.7093048E0,4.6510425E0,5.130436E0,0E0,3.893035E0,0E0,5.05756E0,2.53234E0,0E0,6.4299235E0,1.2018569E1,4.875024E0,2.564855E0,0E0,0E0,1.1013471E0,0E0,1.1791272E0,0E0,3.2397108E0,3.340509E0,6.4983435E0,3.2459311E0,1.7887564E0,0E0,4.355029E0,6.2170134E0,2.0255013E0,4.902368E0,0E0,0E0,0E0,2.4950778E0,1.692097E0,4.031406E0,0E0,0E0,3.6135464E0,4.381562E0,0E0,1.4120915E0,3.9788027E0,4.167945E0,2.1099584E0,3.325882E0,2.9222322E0,0E0,4.1152E0,3.3089209E0,4.5460515E0,4.989892E0,1.4477764E0,0E0,0E0,5.001153E0,0E0,0E0,0E0,0E0,0E0,1.4848442E0,0E0,0E0,0E0,0E0,0E0,0E0,0E0,0E0,0E0,0E0,0E0,0E0,0E0,0E0,0E0,0E0,0E0,0E0,0E0,0E0,0E0,0E0,0E0,0E0,0E0,0E0,0E0,0E0,0E0,0E0],"parents":[2147483647,0,0,1,1,2,2,3,3,4,4,5,5,6,6,7,7,8,8,9,9,10,10,11,11,12,12,13,13,14,14,16,16,18,18,19,19,21,21,22,22,23,23,24,24,27,27,29,29,31,31,32,32,33,33,34,34,35,35,37,37,38,38,39,39,40,40,44,44,45,45,46,46,49,49,50,50,52,52,53,53,54,54,55,55,56,56,57,57,59,59,60,60,61,61,62,62,63,63,66,66,72,72],"right_children":[2,4,6,8,10,12,14,16,18,20,22,24,26,28,30,-1,32,-1,34,36,-1,38,40,42,44,-1,-1,46,-1,48,-1,50,52,54,56,58,-1,60,62,64,66,-1,-1,-1,68,70,72,-1,-1,74,76,-1,78,80,82,84,86,88,-1,90,92,94,96,98,-1,-1,100,-1,-1,-1,-1,-1,102,-1,-1,-1,-1,-1,-1,-1,-1,-1,-1,-1,-1,-1,-1,-1,-1,-1,-1,-1,-1,-1,-1,-1,-1,-1,-1,-1,-1,-1,-1],"split_conditions":[7.109414E1,1.1373972E0,3.3982357E-4,-1.1364995E-4,1.137699E0,1.1346475E0,1.1351233E0,2.3941017E1,1.1252835E0,1.1365604E0,1.1382285E0,1.13305156E-4,1.1392384E0,1.1359233E0,7.656543E1,-2.0076083E-1,1.1372923E0,1.2577961E-1,1.129771E0,7.964899E-4,-2.4395573E-1,5.2026226E1,1.1383806E0,7.390895E1,1.1346099E0,-2.7485082E-1,1.2578799E-3,1.1315187E0,-1.834925E-1,7.342533E1,2.5262356E-1,1.1350247E0,4.455577E1,1.1290877E0,1.1364281E0,1.1364677E0,1.4293616E-1,3.2665676E1,1.1379015E0,1.1354897E0,1.1326338E0,2.4285033E-1,-1.0168209E-1,-2.0976906E-1,2.2689773E-4,5.65896E-4,1.1335896E0,3.355051E-2,-1.3460958E-1,-5.6757964E-4,1.1370481E0,2.7611813E-1,1.1373323E0,5.65896E-4,1.128802E0,1.1279222E0,1.1372588E0,1.1362875E0,6.936299E-2,1.1354238E0,1.1347517E0,1.1380942E-4,5.3519016E1,1.12624344E-4,-1.5591931E-1,2.4496387E-1,1.1348965E0,1.291116E-1,-1.3893016E-1,-5.0992645E-2,1.9860528E-1,-2.1909057E-1,1.1340111E0,-8.570409E-3,6.582637E-2,-9.128697E-2,5.023695E-2,1.00418665E-1,-1.10411026E-1,5.752511E-3,-2.301712E-1,-1.8733983E-1,1.1111746E-1,-1.4158003E-1,7.694591E-3,-2.593397E-2,-2.4548756E-1,-5.472439E-2,-1.8642566E-1,7.146349E-2,-1.9919215E-1,-8.281567E-2,1.1019941E-1,-2.1760927E-1,-1.7459093E-2,-1.8800579E-1,7.457762E-2,-9.479276E-2,1.2421323E-1,-1.3985498E-1,1.8288785E-5,1.0349897E-1,-9.1142856E-2],"split_indices":[3,4,1,1,4,5,5,3,5,5,4,1,4,4,3,0,4,0,4,1,0,3,4,3,4,0,0,4,0,3,0,5,3,4,5,5,0,3,4,5,5,0,0,0,1,1,4,0,0,1,4,0,4,1,5,5,4,5,0,5,5,1,3,1,0,0,5,0,0,0,0,0,5,0,0,0,0,0,0,0,0,0,0,0,0,0,0,0,0,0,0,0,0,0,0,0,0,0,0,0,0,0,0],"split_type":[0,0,0,0,0,0,0,0,0,0,0,0,0,0,0,0,0,0,0,0,0,0,0,0,0,0,0,0,0,0,0,0,0,0,0,0,0,0,0,0,0,0,0,0,0,0,0,0,0,0,0,0,0,0,0,0,0,0,0,0,0,0,0,0,0,0,0,0,0,0,0,0,0,0,0,0,0,0,0,0,0,0,0,0,0,0,0,0,0,0,0,0,0,0,0,0,0,0,0,0,0,0,0],"sum_hessian":[1.156889E3,1.1075067E3,4.9382393E1,6.8003674E2,4.274699E2,2.3545723E1,2.583667E1,1.9538455E2,4.8465222E2,5.2564995E1,3.749049E2,1.4464698E1,9.081025E0,1.6891794E1,8.944876E0,5.5542607E0,1.8983029E2,6.635779E0,4.7801642E2,4.8538372E1,4.0266232E0,9.0209145E1,2.8469577E2,5.333442E0,9.131255E0,7.3800273E0,1.7009976E0,1.1893603E1,4.9981914E0,5.386114E0,3.5587616E0,1.8244461E2,7.385683E0,5.540054E1,4.226159E2,4.7139774E1,1.3985984E0,5.1522514E1,3.868663E1,2.8066757E1,2.56629E2,3.4320447E0,1.9013975E0,5.5653486E0,3.5659068E0,3.1563823E0,8.737221E0,3.744551E0,1.6415633E0,1.4934964E2,3.3094967E1,4.1886296E0,3.1970534E0,3.7940235E1,1.7460304E1,4.0996216E2,1.2653742E1,4.4496204E1,2.6435697E0,7.212452E0,4.4310062E1,1.7547232E1,2.1139397E1,2.8484614E0,2.5218296E1,2.1564813E0,2.5447253E2,1.8973835E0,1.6685234E0,1.181859E0,1.9745234E0,1.7074193E0,7.0298014E0,3.334346E1,1.1600618E2,1.6123604E1,1.6971363E1,1.964752E0,1.2323014E0,3.5836815E1,2.1034186E0,1.60159E1,1.4444058E0,2.8248837E0,4.0713727E2,9.613431E0,3.0403109E0,3.6732628E1,7.7635784E0,3.7875094E0,3.4249425E0,3.1635728E0,4.1146492E1,8.411622E0,9.135611E0,2.4195185E0,1.871988E1,1.4630796E0,1.3853818E0,9.67062E0,2.4480191E2,5.8348207E0,1.1949806E0],"tree_param":{"num_deleted":"0","num_feature":"6","num_nodes":"103","size_leaf_vector":"1"}},{"base_weights":[-8.601555E-3,2.480981E-2,-6.423421E-2,-6.814351E-2,6.5449074E-2,-2.740245E-1,-3.4121019E-3,-2.2032948E-2,-9.4519216E-1,2.9424438E-1,-1.036569E-2,-3.4713858E-1,3.5046732E-1,6.5776475E-2,-1.4247134E-1,-1.5166634E-1,6.9444895E-2,-1.1167985E0,-3.586103E-3,4.916719E-1,1.5243454E-1,-5.642426E-1,8.945599E-3,-2.0531312E-1,-1.0004829E0,7.927123E-1,-1.3160063E-1,4.502199E-2,7.5088644E-1,-8.066613E-1,-6.58944E-2,-6.669017E-2,-6.1340994E-1,-1.0965533E-1,2.7748895E-1,-2.6650164E-1,-2.5030324E-2,-2.2640008E-1,6.2093043E-1,-5.3931963E-1,3.0651397E-1,-1.1456113E-1,-1.0048106E0,2.670746E-1,-3.102981E-2,-2.8566572E-1,2.9415977E-1,-2.221665E-2,-1.1195391E0,2.2491299E-1,-6.774948E-3,4.4813162E-1,2.5537856E-2,1.2613891E0,-1.734021E-1,-8.228844E-3,-1.8624815E-1,2.9729766E-1,-1.5388253E-1,-3.750717E-1,1.1217162E-1,-8.5784066E-1,-2.2049586E-1,1.2754251E-1,-4.2206827E-1,3.3393466E-1,-6.396559E-1,1.914689E-1,-2.3828863E-1,2.2381668E-1,8.7842137E-1,3.76534E-1,-7.742167E-1,2.2507636E-1,2.492529E-1,8.557834E-2,-4.6973494E-1,-2.4296741E-1,-1.502718E-2,5.3630793E-1,1.2051124E-2,-8.721147E-2,1.2329958E-1,-3.582221E-1,4.2014647E-1,1.21222176E-1,-2.7676296E-1,-2.8375214E-1,-1.188344E-1,9.0306634E-1,-3.2644355E-1,1.3951243E-1,1.2076923E-2,3.181897E-1,4.0627915E-2,5.2094406E-1,-4.2725247E-1,-4.0631944E-1,4.9836423E-2,-2.5620684E-1,-5.1079076E-2,1.2331443E-1,-2.4066482E-2,-1.9970648E-2,-2.1017778E-1,8.534919E-2,-2.0014344E-1,6.2003333E-2,-8.379203E-2,9.526489E-2,-1.0666074E-1,2.9648473E-2,1.1496289E-1,1.2830331E-2,-2.028637E-1,1.7544608E-1,-4.0038723E-2,6.801928E-2,-1.3413322E-1,9.577457E-3,1.9829576E-1,-1.21266685E-1,2.38474E-1,-1.9380474E-1,1.9394143E-2,-1.1238787E-1,6.144164E-2,-2.2794943E-1,2.9626414E-2,-1.9068992E-2,1.3157138E-1,-2.4356098E-1,3.2200366E-2,1.7709872E-2,-4.2459767E-2,1.4584465E-1,-5.415543E-3,-5.1059723E-2,-1.5897636E-1,1.7563774E-1,-1.8784571E-2,-1.835339E-1,1.5180135E-1,2.2942138E-1,-2.0784939E-2,5.798557E-2,-1.3009112E-1,-2.0571764E-1,6.351292E-3,1.5762622E-2,1.811241E-1,-2.3301025E-1,8.907723E-2,-3.0255137E-2,-1.4284913E-1,1.14806496E-1,-1.0766267E-2],"categories":[],"categories_nodes":[],"categories_segments":[],"categories_sizes":[],"default_left":[0,0,0,0,0,0,0,0,0,0,0,0,0,0,0,0,0,0,0,0,0,0,0,0,0,0,0,0,0,0,0,0,0,0,0,0,0,0,0,0,0,0,0,0,0,0,0,0,0,0,0,0,0,0,0,0,0,0,0,0,0,0,0,0,0,0,0,0,0,0,0,0,0,0,0,0,0,0,0,0,0,0,0,0,0,0,0,0,0,0,0,0,0,0,0,0,0,0,0,0,0,0,0,0,0,0,0,0,0,0,0,0,0,0,0,0,0,0,0,0,0,0,0,0,0,0,0,0,0,0,0,0,0,0,0,0,0,0,0,0,0,0,0,0,0,0,0,0,0,0,0,0,0,0,0,0,0],"id":7,"left_children":[1,3,5,7,9,11,13,15,17,19,21,23,25,27,29,31,33,35,-1,37,39,41,43,45,47,49,-1,51,53,55,57,59,61,63,65,-1,-1,67,69,71,73,75,77,79,81,83,85,-1,87,-1,-1,89,91,93,-1,-1,-1,95,97,99,101,103,105,107,109,111,113,115,-1,117,119,121,123,-1,125,-1,127,-1,-1,129,131,133,135,137,139,-1,141,-1,-1,143,145,-1,147,-1,-1,149,151,153,155,-1,-1,-1,-1,-1,-1,-1,-1,-1,-1,-1,-1,-1,-1,-1,-1,-1,-1,-1,-1,-1,-1,-1,-1,-1,-1,-1,-1,-1,-1,-1,-1,-1,-1,-1,-1,-1,-1,-1,-1,-1,-1,-1,-1,-1,-1,-1,-1,-1,-1,-1,-1,-1,-1,-1,-1,-1,-1],"loss_changes":[2.1311746E0,2.7111807E0,5.4879966E0,8.813946E0,8.6599045E0,4.535595E0,3.2276938E0,2.4838974E0,1.7125015E0,3.4036312E0,4.0248466E0,7.859969E0,5.262254E0,3.1519687E0,5.615397E0,3.3571935E0,4.6122932E0,1.7950363E0,0E0,4.9196577E0,8.026839E0,2.3964658E0,3.7658062E0,3.0047977E0,1.4921846E0,2.189384E0,0E0,1.7049038E0,6.4820037E0,1.0519524E0,3.2739453E0,4.1383715E0,1.0919127E0,5.003753E0,3.1732512E0,0E0,0E0,3.69109E0,4.2925034E0,3.2599854E0,2.577857E0,1.6271937E0,1.1339331E0,3.3534632E0,2.7524238E0,3.3869262E0,2.0516808E0,0E0,1.256279E0,0E0,0E0,3.8238602E0,1.88682E0,1.5484095E0,0E0,0E0,0E0,3.4701438E0,4.236003E0,2.6535962E0,5.676787E0,1.0477262E0,3.6900995E0,3.9928615E0,3.1580825E0,2.3531208E0,1.0295312E0,2.0165448E0,0E0,2.1638105E0,2.421196E0,3.5209715E0,2.0132556E0,0E0,2.9116135E0,0E0,2.2180877E0,0E0,0E0,1.8885813E0,4.987118E0,5.128285E0,7.7468863E0,2.3968272E0,1.5779797E0,0E0,3.6333678E0,0E0,0E0,1.7349386E0,1.0753322E0,0E0,4.2599745E0,0E0,0E0,2.6098838E0,3.916057E0,2.7757483E0,2.5445955E0,0E0,0E0,0E0,0E0,0E0,0E0,0E0,0E0,0E0,0E0,0E0,0E0,0E0,0E0,0E0,0E0,0E0,0E0,0E0,0E0,0E0,0E0,0E0,0E0,0E0,0E0,0E0,0E0,0E0,0E0,0E0,0E0,0E0,0E0,0E0,0E0,0E0,0E0,0E0,0E0,0E0,0E0,0E0,0E0,0E0,0E0,0E0,0E0,0E0,0E0,0E0,0E0,0E0,0E0,0E0,0E0,0E0,0E0],"parents":[2147483647,0,0,1,1,2,2,3,3,4,4,5,5,6,6,7,7,8,8,9,9,10,10,11,11,12,12,13,13,14,14,15,15,16,16,17,17,19,19,20,20,21,21,22,22,23,23,24,24,25,25,27,27,28,28,29,29,30,30,31,31,32,32,33,33,34,34,37,37,38,38,39,39,40,40,41,41,42,42,43,43,44,44,45,45,46,46,48,48,51,51,52,52,53,53,57,57,58,58,59,59,60,60,61,61,62,62,63,63,64,64,65,65,66,66,67,67,69,69,70,70,71,71,72,72,74,74,76,76,79,79,80,80,81,81,82,82,83,83,84,84,86,86,89,89,90,90,92,92,95,95,96,96,97,97,98,98],"right_children":[2,4,6,8,10,12,14,16,18,20,22,24,26,28,30,32,34,36,-1,38,40,42,44,46,48,50,-1,52,54,56,58,60,62,64,66,-1,-1,68,70,72,74,76,78,80,82,84,86,-1,88,-1,-1,90,92,94,-1,-1,-1,96,98,100,102,104,106,108,110,112,114,116,-1,118,120,122,124,-1,126,-1,128,-1,-1,130,132,134,136,138,140,-1,142,-1,-1,144,146,-1,148,-1,-1,150,152,154,156,-1,-1,-1,-1,-1,-1,-1,-1,-1,-1,-1,-1,-1,-1,-1,-1,-1,-1,-1,-1,-1,-1,-1,-1,-1,-1,-1,-1,-1,-1,-1,-1,-1,-1,-1,-1,-1,-1,-1,-1,-1,-1,-1,-1,-1,-1,-1,-1,-1,-1,-1,-1,-1,-1,-1,-1,-1,-1],"split_conditions":[1.1282314E-4,1.1350112E0,1.1360951E-4,1.1348606E0,1.1365075E0,3.9442055E-4,1.138198E0,-1.131024E-4,1.1349741E0,-5.3439187E-5,1.136695E0,2.0752287E-4,6.9570926E-4,1.1380967E0,1.1383806E0,-1.132771E-4,4.7357244E-5,6.231672E-5,-3.586103E-3,-4.15096E-4,2.4230363E-5,1.4696757E-5,1.1371567E0,1.4103304E-4,1.1293626E-4,1.1344886E-4,-1.3160063E-1,1.13651506E-4,3.406572E-4,1.1382285E0,-1.1391525E-4,-3.395462E-4,9.916509E-5,-1.2450355E-4,4.5385127E-4,-2.6650164E-1,-2.5030324E-2,-4.691015E-4,-1.135045E-4,1.1352515E0,-5.660339E-4,-2.2714335E-4,1.12624344E-4,-1.13557915E-4,1.1398025E0,1.1371206E0,1.1347E0,-2.221665E-2,2.2665689E-4,2.2491299E-1,-6.774948E-3,1.1363704E-4,-4.5240668E-4,3.413623E-4,-1.734021E-1,-8.228844E-3,-1.8624815E-1,3.4129628E-4,2.2743373E-4,1.1291242E0,-9.301828E-5,-4.454988E-4,2.8421328E-4,1.12624344E-4,1.1279966E0,1.13112204E-4,1.1281618E0,-4.5294416E-4,-2.3828863E-1,-1.1351739E-4,1.135106E0,1.135106E0,1.1360127E0,2.2507636E-1,-5.6696346E-4,8.557834E-2,-2.6824797E-4,-2.4296741E-1,-1.502718E-2,-4.5385954E-4,-1.1347873E-4,-8.258272E-5,-5.6902785E-4,1.1353028E-4,1.1374478E0,1.21222176E-1,1.1358643E0,-2.8375214E-1,-1.188344E-1,1.3369681E-4,-1.620809E-4,1.3951243E-1,-3.4054118E-4,3.181897E-1,4.0627915E-2,-9.98835E-5,4.546531E-4,1.1392908E-4,-3.4076723E-4,-2.5620684E-1,-5.1079076E-2,1.2331443E-1,-2.4066482E-2,-1.9970648E-2,-2.1017778E-1,8.534919E-2,-2.0014344E-1,6.2003333E-2,-8.379203E-2,9.526489E-2,-1.0666074E-1,2.9648473E-2,1.1496289E-1,1.2830331E-2,-2.028637E-1,1.7544608E-1,-4.0038723E-2,6.801928E-2,-1.3413322E-1,9.577457E-3,1.9829576E-1,-1.21266685E-1,2.38474E-1,-1.9380474E-1,1.9394143E-2,-1.1238787E-1,6.144164E-2,-2.2794943E-1,2.9626414E-2,-1.9068992E-2,1.3157138E-1,-2.4356098E-1,3.2200366E-2,1.7709872E-2,-4.2459767E-2,1.4584465E-1,-5.415543E-3,-5.1059723E-2,-1.5897636E-1,1.7563774E-1,-1.8784571E-2,-1.835339E-1,1.5180135E-1,2.2942138E-1,-2.0784939E-2,5.798557E-2,-1.3009112E-1,-2.0571764E-1,6.351292E-3,1.5762622E-2,1.811241E-1,-2.3301025E-1,8.907723E-2,-3.0255137E-2,-1.4284913E-1,1.14806496E-1,-1.0766267E-2],"split_indices":[0,4,0,4,4,2,4,0,4,2,4,2,2,4,4,0,2,2,0,2,2,2,4,2,0,0,0,0,0,4,1,1,2,2,1,0,0,2,0,4,0,1,1,0,4,4,4,0,1,0,0,1,1,1,0,0,0,0,0,4,2,2,2,1,4,1,4,0,0,0,4,4,4,0,1,0,2,0,0,0,0,2,1,0,4,0,4,0,0,2,2,0,1,0,0,2,0,0,2,0,0,0,0,0,0,0,0,0,0,0,0,0,0,0,0,0,0,0,0,0,0,0,0,0,0,0,0,0,0,0,0,0,0,0,0,0,0,0,0,0,0,0,0,0,0,0,0,0,0,0,0,0,0,0,0,0,0],"split_type":[0,0,0,0,0,0,0,0,0,0,0,0,0,0,0,0,0,0,0,0,0,0,0,0,0,0,0,0,0,0,0,0,0,0,0,0,0,0,0,0,0,0,0,0,0,0,0,0,0,0,0,0,0,0,0,0,0,0,0,0,0,0,0,0,0,0,0,0,0,0,0,0,0,0,0,0,0,0,0,0,0,0,0,0,0,0,0,0,0,0,0,0,0,0,0,0,0,0,0,0,0,0,0,0,0,0,0,0,0,0,0,0,0,0,0,0,0,0,0,0,0,0,0,0,0,0,0,0,0,0,0,0,0,0,0,0,0,0,0,0,0,0,0,0,0,0,0,0,0,0,0,0,0,0,0,0,0],"sum_hessian":[1.1446979E3,7.155271E2,4.291708E2,2.1745961E2,4.9806747E2,9.5671425E1,3.334994E2,2.0757172E2,9.8878975E0,1.2324754E2,3.7481995E2,8.6041954E1,9.62947E0,2.2304893E2,1.1045045E2,8.560408E1,1.21967636E2,8.171255E0,1.7166421E0,5.0489285E1,7.2758255E1,1.167736E1,3.6314258E2,7.177547E1,1.426649E1,6.842689E0,2.7867808E0,2.1752502E2,5.5239124E0,1.043226E1,1.0001819E2,7.326527E1,1.2338815E1,6.579726E1,5.617038E1,6.429037E0,1.7422187E0,7.5873947E0,4.290189E1,1.2798392E1,5.9959866E1,6.402475E0,5.2748847E0,4.7935127E1,3.1520746E2,6.2197517E1,9.577946E0,1.9124829E0,1.2354008E1,4.625273E0,2.2174156E0,9.014896E0,2.0851012E2,4.3664865E0,1.1574259E0,1.646303E0,8.785956E0,1.9041403E1,8.097678E1,2.6492197E1,4.6773067E1,6.8772306E0,5.4615846E0,3.7737225E1,2.806003E1,5.351283E1,2.6575518E0,5.8541226E0,1.7332721E0,1.7610865E1,2.5291025E1,2.4893906E0,1.0309002E1,2.699654E0,5.7260212E1,2.4523265E0,3.9501486E0,4.05261E0,1.2222749E0,2.2781391E1,2.5153738E1,2.3140302E2,8.380444E1,5.6846275E1,5.351241E0,6.1538568E0,3.4240894E0,6.7876225E0,5.5663853E0,5.574761E0,3.4401352E0,3.0965507E0,2.0541357E2,2.9457471E0,1.4207397E0,1.4764932E1,4.276471E0,3.572004E1,4.5256744E1,1.9589065E0,2.4533289E1,1.4236387E1,3.2536682E1,1.7039723E0,5.1732583E0,3.232812E0,2.2287724E0,2.8615421E1,9.121801E0,2.729895E0,2.5330135E1,3.1130215E1,2.2382614E1,1.2111564E0,1.4463953E0,1.6774013E0,4.176721E0,1.6133366E1,1.4774979E0,3.2008362E0,2.2090189E1,1.2455844E0,1.2438064E0,8.333286E0,1.9757154E0,3.2382865E0,5.4021923E1,1.4898808E0,2.4602678E0,3.7111673E0,1.9070223E1,1.9421235E0,2.3211615E1,9.633473E1,1.3506828E2,1.589769E1,6.790675E1,4.7285458E1,9.560821E0,2.4552631E0,2.895978E0,2.1856742E0,1.2384151E0,4.3752837E0,1.1994771E0,1.221554E0,2.2185812E0,2.8608956E0,2.0255267E2,7.4300394E0,7.3348923E0,2.1356938E0,2.1407773E0,2.0353373E1,1.5366665E1,6.723274E0,3.853347E1],"tree_param":{"num_deleted":"0","num_feature":"6","num_nodes":"157","size_leaf_vector":"1"}},{"base_weights":[-2.6842583E-2,-1.3988096E-2,-2.368641E-1,-3.5801485E-2,1.0564122E-1,-3.074801E-1,3.3491656E-1,-1.2809825E-1,-4.1257897E-3,1.8818936E-1,-1.979026E-1,2.689752E-2,-4.1729918E-1,1.1816591E-1,-1.067697E-1,6.7518624E-3,-3.6585325E-1,3.6702223E-2,-1.11946054E-1,1.1018022E-1,4.858452E-1,4.040577E-1,-6.8027693E-1,-3.809212E-1,5.616626E-1,-1.9341773E-1,-1.9941942E-1,-5.599197E-2,3.7662074E-1,1.2510397E-1,-4.4775409E-1,5.562086E-3,6.9912684E-1,-2.9111144E-1,-3.9549533E-2,4.5766413E-1,2.077586E-2,1.5011168E-1,1.1943126E0,-3.1076095E-1,7.027279E-1,-8.088004E-1,1.2167107E-1,-6.8191427E-1,8.320086E-2,8.587029E-1,-1.0150079E-1,3.153973E-1,-4.6258602E-1,4.7023706E-2,-6.3375753E-1,6.3680196E-1,-5.9237516E-1,-2.0074861E-1,4.5068616E-1,-6.220393E-1,-8.817665E-2,1.1872074E-2,-1.7425387E-1,-1.5247308E-1,9.777235E-1,-3.893517E-1,4.596326E-1,1.3266875E-1,-1.8992518E-1,-9.409449E-2,7.8820735E-1,7.942958E-2,-5.729169E-1,4.236684E-1,-1.2345336E-1,3.431031E-1,6.480071E-1,-1.4301428E-1,4.3843742E-2,2.4079831E-1,1.8688811E-2,-4.1899735E-1,-1.0499911E0,-2.0866293E-1,-2.0712017E-1,-6.4420127E-3,2.161758E-1,-1.2679882E-1,8.718955E-1,1.4262621E-1,-6.5975684E-1,4.7228817E-4,1.3220309E-1,-1.7334424E-2,-1.5641227E-1,9.200628E-2,2.7385074E-1,1.0382134E-1,-2.3403616E-1,1.2379185E-1,-9.954348E-2,4.6746624E-3,-1.4810273E-1,7.543088E-2,-8.334258E-2,-9.68351E-4,7.057423E-2,1.5889072E-1,-1.0630937E-1,2.53252E-1,7.031023E-2,-1.1702832E-1,-3.668876E-2,1.3364807E-1,-3.7395384E-2,5.3326126E-2,-7.995493E-2,-1.1644151E-1,-1.48782795E-2,-7.7798255E-2,1.1434124E-1,2.760106E-1,8.879918E-3,-5.618552E-2,3.732232E-2,1.0046907E-1,-1.7938545E-1,-1.47134885E-2,1.6181612E-1,-2.3820652E-2,2.125612E-1,-1.7180614E-1,3.1580474E-2,2.575248E-2,-2.5969708E-1,7.1706794E-2,-1.4201044E-1,-1.910793E-1,5.1348872E-2,2.4341436E-1,-1.5729843E-2,-9.945355E-2,1.706614E-1,-2.0633899E-1,6.1884254E-2],"categories":[],"categories_nodes":[],"categories_segments":[],"categories_sizes":[],"default_left":[0,0,0,0,0,0,0,0,0,0,0,0,0,0,0,0,0,0,0,0,0,0,0,0,0,0,0,0,0,0,0,0,0,0,0,0,0,0,0,0,0,0,0,0,0,0,0,0,0,0,0,0,0,0,0,0,0,0,0,0,0,0,0,0,0,0,0,0,0,0,0,0,0,0,0,0,0,0,0,0,0,0,0,0,0,0,0,0,0,0,0,0,0,0,0,0,0,0,0,0,0,0,0,0,0,0,0,0,0,0,0,0,0,0,0,0,0,0,0,0,0,0,0,0,0,0,0,0,0,0,0,0,0,0,0,0,0,0,0,0,0],"id":8,"left_children":[1,3,5,7,9,11,13,15,17,19,21,23,25,-1,-1,27,29,31,33,35,37,39,41,43,45,-1,47,49,51,53,55,57,59,61,63,65,67,69,71,73,75,77,-1,79,-1,81,-1,83,85,87,89,91,93,-1,95,97,99,101,-1,103,105,107,109,111,113,115,117,119,121,123,-1,-1,125,-1,-1,-1,-1,127,129,131,-1,-1,-1,133,135,137,139,-1,-1,-1,-1,-1,-1,-1,-1,-1,-1,-1,-1,-1,-1,-1,-1,-1,-1,-1,-1,-1,-1,-1,-1,-1,-1,-1,-1,-1,-1,-1,-1,-1,-1,-1,-1,-1,-1,-1,-1,-1,-1,-1,-1,-1,-1,-1,-1,-1,-1,-1,-1,-1,-1],"loss_changes":[3.1203895E0,2.8517523E0,2.7949266E0,2.7002916E0,4.260997E0,2.2094584E0,2.0512323E0,7.5691214E0,3.0362883E0,3.0356045E0,1.0881386E1,3.64652E0,5.2124133E0,0E0,0E0,3.538675E0,3.4911947E0,1.0317732E1,2.4456434E0,3.3054652E0,6.3220325E0,3.8215196E0,3.9121866E0,2.5685468E0,2.7268429E0,0E0,4.6949186E0,7.7947264E0,5.9522276E0,5.2286906E0,4.5472956E0,2.6600637E0,5.4772797E0,4.1881886E0,3.5491996E0,4.047961E0,3.0373304E0,4.39457E0,1.3497019E0,1.3710439E0,3.616572E0,1.3658466E0,0E0,1.0046277E0,0E0,1.2258124E0,0E0,3.0518217E0,2.7938251E0,3.0601618E0,1.539537E0,1.6895614E0,3.9461923E0,0E0,2.027916E0,3.7867718E0,4.0003753E0,2.7173383E0,0E0,2.7199717E0,2.6365738E0,1.8524022E0,1.0352868E0,4.672927E0,3.26771E0,2.0004966E0,5.983988E0,3.1064167E0,3.1843314E0,2.9547193E0,0E0,0E0,1.9809008E0,0E0,0E0,0E0,0E0,2.421794E0,3.4482222E0,1.4977982E0,0E0,0E0,0E0,2.6393752E0,1.873786E0,3.3264565E0,6.534644E0,0E0,0E0,0E0,0E0,0E0,0E0,0E0,0E0,0E0,0E0,0E0,0E0,0E0,0E0,0E0,0E0,0E0,0E0,0E0,0E0,0E0,0E0,0E0,0E0,0E0,0E0,0E0,0E0,0E0,0E0,0E0,0E0,0E0,0E0,0E0,0E0,0E0,0E0,0E0,0E0,0E0,0E0,0E0,0E0,0E0,0E0,0E0,0E0,0E0,0E0,0E0,0E0,0E0,0E0],"parents":[2147483647,0,0,1,1,2,2,3,3,4,4,5,5,6,6,7,7,8,8,9,9,10,10,11,11,12,12,15,15,16,16,17,17,18,18,19,19,20,20,21,21,22,22,23,23,24,24,26,26,27,27,28,28,29,29,30,30,31,31,32,32,33,33,34,34,35,35,36,36,37,37,38,38,39,39,40,40,41,41,43,43,45,45,47,47,48,48,49,49,50,50,51,51,52,52,54,54,55,55,56,56,57,57,59,59,60,60,61,61,62,62,63,63,64,64,65,65,66,66,67,67,68,68,69,69,72,72,77,77,78,78,79,79,83,83,84,84,85,85,86,86],"right_children":[2,4,6,8,10,12,14,16,18,20,22,24,26,-1,-1,28,30,32,34,36,38,40,42,44,46,-1,48,50,52,54,56,58,60,62,64,66,68,70,72,74,76,78,-1,80,-1,82,-1,84,86,88,90,92,94,-1,96,98,100,102,-1,104,106,108,110,112,114,116,118,120,122,124,-1,-1,126,-1,-1,-1,-1,128,130,132,-1,-1,-1,134,136,138,140,-1,-1,-1,-1,-1,-1,-1,-1,-1,-1,-1,-1,-1,-1,-1,-1,-1,-1,-1,-1,-1,-1,-1,-1,-1,-1,-1,-1,-1,-1,-1,-1,-1,-1,-1,-1,-1,-1,-1,-1,-1,-1,-1,-1,-1,-1,-1,-1,-1,-1,-1,-1,-1,-1],"split_conditions":[6.956912E1,3.0162657E-4,1.2034603E-3,-1.1367736E-4,4.5544954E-4,1.1346387E-4,8.118104E1,4.6227657E1,5.442723E1,6.5724525E1,6.3237423E1,3.5944642E-4,2.2708821E-4,1.1816591E-1,-1.067697E-1,4.410758E1,-4.5508347E-4,1.0983844E-4,1.12624344E-4,5.6596973E1,3.406572E-4,3.9442055E-4,1.3536762E-3,7.135287E1,1.1344886E-4,-1.9341773E-1,4.9547263E-4,-1.1396873E-4,2.753021E-6,-9.069756E-4,5.251541E1,1.1382172E-3,-1.1334128E-4,6.2469677E1,5.8433617E1,-5.6379766E-4,4.519016E-4,2.2740786E-4,6.723439E1,2.2708821E-4,5.264177E-4,5.156534E-4,1.2167107E-1,7.109414E1,8.320086E-2,-1.1342313E-4,-1.0150079E-1,1.141388E-4,3.4186515E-4,1.12827016E-4,3.2665676E1,-1.1375635E-4,-4.5385954E-4,-2.0074861E-1,5.15783E1,-4.0752533E-5,-1.1343599E-4,5.671217E-4,-1.7425387E-1,-1.1363859E-4,1.1367736E-4,5.6873512E1,2.7567105E-4,2.2804202E-4,5.9729942E1,-1.1347873E-4,-1.1375635E-4,-2.2660552E-4,5.9729942E1,1.132617E-4,-1.2345336E-1,3.431031E-1,4.3467825E-4,-1.4301428E-1,4.3843742E-2,2.4079831E-1,1.8688811E-2,6.7969575E-4,5.65896E-4,2.8931556E-4,-2.0712017E-1,-6.4420127E-3,2.161758E-1,3.2739274E-4,3.408449E-4,1.1371612E-4,7.8282425E1,4.7228817E-4,1.3220309E-1,-1.7334424E-2,-1.5641227E-1,9.200628E-2,2.7385074E-1,1.0382134E-1,-2.3403616E-1,1.2379185E-1,-9.954348E-2,4.6746624E-3,-1.4810273E-1,7.543088E-2,-8.334258E-2,-9.68351E-4,7.057423E-2,1.5889072E-1,-1.0630937E-1,2.53252E-1,7.031023E-2,-1.1702832E-1,-3.668876E-2,1.3364807E-1,-3.7395384E-2,5.3326126E-2,-7.995493E-2,-1.1644151E-1,-1.48782795E-2,-7.7798255E-2,1.1434124E-1,2.760106E-1,8.879918E-3,-5.618552E-2,3.732232E-2,1.0046907E-1,-1.7938545E-1,-1.47134885E-2,1.6181612E-1,-2.3820652E-2,2.125612E-1,-1.7180614E-1,3.1580474E-2,2.575248E-2,-2.5969708E-1,7.1706794E-2,-1.4201044E-1,-1.910793E-1,5.1348872E-2,2.4341436E-1,-1.5729843E-2,-9.945355E-2,1.706614E-1,-2.0633899E-1,6.1884254E-2],"split_indices":[3,2,2,0,1,1,3,3,3,3,3,2,1,0,0,3,1,2,1,3,1,2,1,3,0,0,2,0,2,1,3,1,0,3,3,1,1,1,3,0,2,2,0,3,0,0,0,0,1,1,3,0,0,0,3,2,1,1,0,0,0,3,2,0,3,0,1,1,3,1,0,0,2,0,0,0,0,1,1,2,0,0,0,2,0,0,3,0,0,0,0,0,0,0,0,0,0,0,0,0,0,0,0,0,0,0,0,0,0,0,0,0,0,0,0,0,0,0,0,0,0,0,0,0,0,0,0,0,0,0,0,0,0,0,0,0,0,0,0,0,0],"split_type":[0,0,0,0,0,0,0,0,0,0,0,0,0,0,0,0,0,0,0,0,0,0,0,0,0,0,0,0,0,0,0,0,0,0,0,0,0,0,0,0,0,0,0,0,0,0,0,0,0,0,0,0,0,0,0,0,0,0,0,0,0,0,0,0,0,0,0,0,0,0,0,0,0,0,0,0,0,0,0,0,0,0,0,0,0,0,0,0,0,0,0,0,0,0,0,0,0,0,0,0,0,0,0,0,0,0,0,0,0,0,0,0,0,0,0,0,0,0,0,0,0,0,0,0,0,0,0,0,0,0,0,0,0,0,0,0,0,0,0,0,0],"sum_hessian":[1.1560472E3,1.0903767E3,6.567053E1,9.228108E2,1.6756596E2,5.886307E1,6.8074584E0,2.3500581E2,6.8780493E2,1.320384E2,3.5527557E1,1.4739439E1,4.4123634E1,5.505591E0,1.3018672E0,1.5057446E2,8.443136E1,4.9936957E2,1.8843536E2,1.0570546E2,2.6332949E1,1.5876923E1,1.9650633E1,8.525481E0,6.2139573E0,1.154721E1,3.2576424E1,1.2946149E2,2.1112974E1,1.1995635E1,7.243572E1,4.7791168E2,2.1457912E1,5.3360023E1,1.3507535E2,2.078854E1,8.4916916E1,1.8688562E1,7.6443853E0,4.6669216E0,1.1210001E1,1.8207083E1,1.4435507E0,6.292985E0,2.2324965E0,5.01697E0,1.1969872E0,1.09524145E1,2.1624008E1,1.10651E2,1.8810478E1,1.6914227E1,4.1987486E0,2.2190177E0,9.776617E0,4.8296677E1,2.413905E1,4.7547644E2,2.4352355E0,5.40103E0,1.6056883E1,4.761114E1,5.7488804E0,6.3019627E1,7.205572E1,8.056154E0,1.2732386E1,7.8070206E1,6.846714E0,1.410742E1,4.5811424E0,2.8168023E0,4.8275833E0,2.44922E0,2.217702E0,5.614677E0,5.5953236E0,8.0057335E0,1.0201349E1,3.3715878E0,2.9213972E0,1.1720688E0,3.8449013E0,6.533229E0,4.4191856E0,5.3816786E0,1.624233E1,1.0408372E2,6.56729E0,4.3495674E0,1.4460911E1,1.4937311E1,1.9769146E0,1.4708921E0,2.7278562E0,8.598392E0,1.1782258E0,7.6150246E0,4.0681652E1,9.92853E0,1.421052E1,4.5419995E2,2.1276487E1,1.2307757E0,4.1702547E0,1.0292114E1,5.764768E0,2.346111E1,2.4150034E1,4.3212996E0,1.4275805E0,5.0750195E1,1.2269432E1,1.5474488E1,5.658123E1,5.8713617E0,2.1847923E0,6.6141424E0,6.1182427E0,1.7525751E1,6.0544453E1,1.457951E0,5.388763E0,6.5133734E0,7.5940466E0,1.9444572E0,2.883126E0,4.264169E0,3.7415643E0,1.8600193E0,8.341331E0,1.7156625E0,1.655925E0,1.5954599E0,4.937769E0,3.0362298E0,1.3829559E0,2.9898891E0,2.3917897E0,1.1691153E1,4.551178E0],"tree_param":{"num_deleted":"0","num_feature":"6","num_nodes":"141","size_leaf_vector":"1"}},{"base_weights":[1.6913068E-2,5.0052702E-2,-7.791935E-2,4.1471496E-2,3.9907026E-1,-3.8781893E-2,-6.19862E-1,4.4492337E-1,3.380167E-2,5.0423723E-1,-1.1348962E-1,-6.0840633E-2,7.129507E-1,-9.5734555E-1,-2.0517798E-1,-1.275786E-1,6.6842073E-1,-1.9353579E-1,4.978225E-2,1.8953106E-1,9.1690147E-1,-1.8838358E-1,-3.0468074E-3,1.8620364E-1,1.1049542E-2,1.188895E-2,-1.0900075E0,1.7596337E-1,-4.939584E-1,1.7548245E-1,-3.0439094E-2,2.1842352E-1,-2.7094272E-1,3.560267E-1,1.955244E-2,5.559734E-1,-7.819437E-2,-3.2629114E-2,1.1473302E0,-2.653146E-1,6.6602504E-1,-3.7814158E-1,3.903459E-2,-5.264188E-2,-2.5996462E-1,-2.1658416E-1,-1.9454505E-1,-1.2494508E-1,-7.8371674E-1,-6.1950904E-1,4.591482E-1,-1.5580894E-1,3.753821E-2,-6.520435E-2,1.5359718E-1,2.9324004E-1,2.4531608E-2,-1.5892969E-1,-1.7108206E-1,-1.0811459E-1,2.591374E-1,-8.385793E-1,3.2427463E-1,4.8598754E-1,-1.4030752E-2,2.0880866E-1,-1.2052448E-1,9.286205E-2,-6.7845814E-2,-1.9360857E-1,5.7814073E-2,-1.8677989E-1,7.445478E-3,2.1368678E-1,5.2984536E-2,8.123613E-2,4.1014743E-3,1.15867674E-1,-4.4102926E-2,-3.128139E-3,-2.5192103E-1,2.144326E-1,-6.672278E-2,-1.2264592E-2,1.5577781E-1,1.0424256E-1,-1.0110322E-2,-1.16521515E-1,1.591845E-1],"categories":[],"categories_nodes":[],"categories_segments":[],"categories_sizes":[],"default_left":[0,0,0,0,0,0,0,0,0,0,0,0,0,0,0,0,0,0,0,0,0,0,0,0,0,0,0,0,0,0,0,0,0,0,0,0,0,0,0,0,0,0,0,0,0,0,0,0,0,0,0,0,0,0,0,0,0,0,0,0,0,0,0,0,0,0,0,0,0,0,0,0,0,0,0,0,0,0,0,0,0,0,0,0,0,0,0,0,0],"id":9,"left_children":[1,3,5,7,9,11,13,15,17,19,-1,21,23,25,27,-1,29,31,33,35,37,39,41,-1,-1,-1,43,-1,45,-1,-1,-1,47,49,51,53,-1,-1,55,57,59,61,63,-1,-1,-1,65,67,69,71,73,-1,75,-1,-1,-1,-1,77,-1,-1,-1,79,81,83,85,87,-1,-1,-1,-1,-1,-1,-1,-1,-1,-1,-1,-1,-1,-1,-1,-1,-1,-1,-1,-1,-1,-1,-1],"loss_changes":[3.5316818E0,2.4766223E0,6.1498613E0,2.5025287E0,2.3048198E0,4.5627503E0,2.5379558E0,4.0796986E0,2.9141731E0,2.2210655E0,0E0,1.9579113E0,1.0741658E0,1.4810143E0,3.5801606E0,0E0,2.3633175E0,5.5418534E0,6.915749E0,2.7110164E0,2.1079912E0,5.621522E0,2.9168847E0,0E0,0E0,0E0,1.2779732E0,0E0,1.3004756E0,0E0,0E0,0E0,3.6842752E0,7.037071E0,9.820093E0,1.6713772E0,0E0,0E0,1.9391794E0,4.6795783E0,6.1153636E0,6.300391E0,3.949157E0,0E0,0E0,0E0,1.2616014E0,5.2731514E0,2.4563575E0,1.4476256E0,6.9689283E0,0E0,4.1830163E0,0E0,0E0,0E0,0E0,3.1384978E0,0E0,0E0,0E0,3.978013E0,4.3439236E0,2.8801465E0,2.9497008E0,2.4212165E0,0E0,0E0,0E0,0E0,0E0,0E0,0E0,0E0,0E0,0E0,0E0,0E0,0E0,0E0,0E0,0E0,0E0,0E0,0E0,0E0,0E0,0E0,0E0],"parents":[2147483647,0,0,1,1,2,2,3,3,4,4,5,5,6,6,7,7,8,8,9,9,11,11,12,12,13,13,14,14,16,16,17,17,18,18,19,19,20,20,21,21,22,22,26,26,28,28,32,32,33,33,34,34,35,35,38,38,39,39,40,40,41,41,42,42,46,46,47,47,48,48,49,49,50,50,52,52,57,57,61,61,62,62,63,63,64,64,65,65],"right_children":[2,4,6,8,10,12,14,16,18,20,-1,22,24,26,28,-1,30,32,34,36,38,40,42,-1,-1,-1,44,-1,46,-1,-1,-1,48,50,52,54,-1,-1,56,58,60,62,64,-1,-1,-1,66,68,70,72,74,-1,76,-1,-1,-1,-1,78,-1,-1,-1,80,82,84,86,88,-1,-1,-1,-1,-1,-1,-1,-1,-1,-1,-1,-1,-1,-1,-1,-1,-1,-1,-1,-1,-1,-1,-1],"split_conditions":[2.2722078E-4,1.1416602E0,1.1409212E0,1.1279966E0,6.402862E1,1.3536762E-3,1.1419848E0,-3.3785184E-4,1.129771E0,4.5695942E1,-1.1348962E-1,1.1267926E-4,6.804759E-4,-2.2780545E-4,1.1421744E0,-1.275786E-1,1.12827016E-4,2.994853E1,1.1325794E0,4.0349113E1,-4.5645187E-4,1.1398025E0,4.5871906E1,1.8620364E-1,1.1049542E-2,1.188895E-2,1.1411107E0,1.7596337E-1,1.1423888E0,1.7548245E-1,-3.0439094E-2,2.1842352E-1,1.1292562E0,3.4291615E1,1.1328107E0,-5.6921225E-4,-7.819437E-2,-3.2629114E-2,5.7384766E1,6.723439E1,5.6873512E1,2.2761885E-4,5.0544395E1,-5.264188E-2,-2.5996462E-1,-2.1658416E-1,7.889755E-4,-1.14125774E-4,5.5460224E1,-4.5104203E-4,-3.3785184E-4,-1.5580894E-1,1.1333811E0,-6.520435E-2,1.5359718E-1,2.9324004E-1,2.4531608E-2,-3.4003117E-4,-1.7108206E-1,-1.0811459E-1,2.591374E-1,1.1371756E-4,4.2086807E1,3.406572E-4,1.132617E-4,4.5113187E-4,-1.2052448E-1,9.286205E-2,-6.7845814E-2,-1.9360857E-1,5.7814073E-2,-1.8677989E-1,7.445478E-3,2.1368678E-1,5.2984536E-2,8.123613E-2,4.1014743E-3,1.15867674E-1,-4.4102926E-2,-3.128139E-3,-2.5192103E-1,2.144326E-1,-6.672278E-2,-1.2264592E-2,1.5577781E-1,1.0424256E-1,-1.0110322E-2,-1.16521515E-1,1.591845E-1],"split_indices":[1,4,4,4,3,1,4,1,4,3,0,0,0,0,4,0,1,3,4,3,0,4,3,0,0,0,4,0,4,0,0,0,4,3,4,0,0,0,3,3,3,0,3,0,0,0,1,1,3,1,1,0,4,0,0,0,0,0,0,0,0,0,3,1,0,1,0,0,0,0,0,0,0,0,0,0,0,0,0,0,0,0,0,0,0,0,0,0,0],"split_type":[0,0,0,0,0,0,0,0,0,0,0,0,0,0,0,0,0,0,0,0,0,0,0,0,0,0,0,0,0,0,0,0,0,0,0,0,0,0,0,0,0,0,0,0,0,0,0,0,0,0,0,0,0,0,0,0,0,0,0,0,0,0,0,0,0,0,0,0,0,0,0,0,0,0,0,0,0,0,0,0,0,0,0,0,0,0,0,0,0],"sum_hessian":[1.121528E3,8.31447E2,2.900809E2,8.12587E2,1.886005E1,2.7154248E2,1.8538414E1,1.4095941E1,7.98491E2,1.7440628E1,1.4194216E0,2.646944E2,6.848091E0,9.49911E0,9.039303E0,2.0944512E0,1.2001489E1,5.1713364E1,7.4677765E2,1.0722624E1,6.718005E0,8.183541E1,1.8285898E2,4.8308253E0,2.0172656E0,1.1600199E0,8.33909E0,1.4699183E0,7.5693846E0,9.510244E0,2.491245E0,2.1923177E0,4.9521046E1,6.6124374E1,6.8065326E2,6.59916E0,4.123463E0,1.2326092E0,5.485396E0,7.570812E1,6.1272907E0,1.7639793E1,1.6521918E2,2.144189E0,6.1949015E0,1.6691895E0,5.900195E0,3.9514183E1,1.0006861E1,5.8428726E0,6.02815E1,1.4059828E1,6.6659344E2,1.1746671E0,5.424493E0,3.854888E0,1.6305078E0,6.521942E1,1.0488702E1,2.1495926E0,3.977698E0,1.05381365E1,7.1016564E0,1.6668371E1,1.4855081E2,3.212848E0,2.6873472E0,1.0226295E1,2.928789E1,8.622911E0,1.3839493E0,3.6659112E0,2.1769617E0,1.3483319E1,4.679818E1,2.84269E1,6.3816656E2,4.37428E0,6.084514E1,3.9177117E0,6.620425E0,3.028805E0,4.072851E0,6.0862846E0,1.0582086E1,8.640816E0,1.3990999E2,1.3716159E0,1.8412321E0],"tree_param":{"num_deleted":"0","num_feature":"6","num_nodes":"89","size_leaf_vector":"1"}},{"base_weights":[2.3509558E-2,8.633823E-2,-3.7166607E-2,9.926932E-2,-3.3567327E-1,-7.9230225E-1,-2.6520206E-2,9.1552146E-2,8.447024E-1,-9.509486E-1,3.8369007E-2,-2.3699188E-1,-3.9106436E-2,2.2439323E-1,-3.4465455E-2,4.884391E-2,1.6745913E-1,2.873095E-1,3.742226E-2,-2.4459842E-1,-3.530382E-2,1.8199645E-1,-1.4406462E-1,1.9801095E-2,-1.5724722E-1,9.825987E-2,-2.907277E-1,4.5248407E-1,5.3648733E-2,1.5120153E-1,-1.4689615E-1,2.5911876E-3,6.217918E-1,-3.413097E-1,-1.9634802E-2,8.626557E-2,2.3675513E-1,-4.3931463E-1,8.107785E-2,9.075107E-1,3.3398896E-1,-4.8955E-1,1.03223585E-1,-6.748069E-2,2.3833612E-1,-1.1196325E-1,8.8985756E-2,8.549282E-1,-5.988273E-2,-5.251335E-1,1.1883107E-1,4.0351577E-2,-5.8006877E-1,2.2099854E-2,-7.724445E-2,-1.0715946E-1,3.913051E-2,7.152699E-2,-1.6530049E-1,9.7850144E-2,2.614734E-1,1.2035891E-2,9.031697E-2,-2.3051823E-2,-1.7448315E-1,1.5494214E-1,1.08131785E-2,-7.864329E-2,-9.236689E-3,9.847984E-2,8.6131655E-3,2.9198465E-1,8.063891E-2,-5.4395724E-2,-1.7262554E-1,9.003725E-2,-1.1053008E-1,2.981692E-2,-5.7343908E-2,-1.922739E-1,1.3083535E-2],"categories":[],"categories_nodes":[],"categories_segments":[],"categories_sizes":[],"default_left":[0,0,0,0,0,0,0,0,0,0,0,0,0,0,0,0,0,0,0,0,0,0,0,0,0,0,0,0,0,0,0,0,0,0,0,0,0,0,0,0,0,0,0,0,0,0,0,0,0,0,0,0,0,0,0,0,0,0,0,0,0,0,0,0,0,0,0,0,0,0,0,0,0,0,0,0,0,0,0,0,0],"id":10,"left_children":[1,3,5,7,9,11,13,15,17,19,21,-1,-1,-1,23,25,27,-1,-1,-1,-1,-1,29,31,33,35,37,39,41,43,-1,45,47,49,51,53,-1,55,57,59,61,63,65,-1,-1,67,69,71,-1,73,75,77,79,-1,-1,-1,-1,-1,-1,-1,-1,-1,-1,-1,-1,-1,-1,-1,-1,-1,-1,-1,-1,-1,-1,-1,-1,-1,-1,-1,-1],"loss_changes":[4.3410482E0,3.0856051E0,4.6383176E0,3.0490456E0,3.9160147E0,1.6482377E0,5.263043E0,1.7392507E0,1.8511782E0,1.135035E0,1.9510005E0,0E0,0E0,0E0,3.7981257E0,5.840496E0,6.258045E0,0E0,0E0,0E0,0E0,0E0,1.91145E0,4.0997972E0,4.4180465E0,3.8442774E0,2.480377E0,2.669406E0,3.8081295E0,4.3236656E0,0E0,3.828993E0,2.6181583E0,6.3784275E0,3.4194765E0,3.4876611E0,0E0,2.051353E0,3.6789353E0,1.1679354E0,1.4321308E0,1.5967164E0,4.2061195E0,0E0,0E0,3.0593748E0,4.06416E0,1.881104E0,0E0,4.346401E0,5.172863E0,3.3211968E0,2.4828227E0,0E0,0E0,0E0,0E0,0E0,0E0,0E0,0E0,0E0,0E0,0E0,0E0,0E0,0E0,0E0,0E0,0E0,0E0,0E0,0E0,0E0,0E0,0E0,0E0,0E0,0E0,0E0,0E0],"parents":[2147483647,0,0,1,1,2,2,3,3,4,4,5,5,6,6,7,7,8,8,9,9,10,10,14,14,15,15,16,16,22,22,23,23,24,24,25,25,26,26,27,27,28,28,29,29,31,31,32,32,33,33,34,34,35,35,37,37,38,38,39,39,40,40,41,41,42,42,45,45,46,46,47,47,49,49,50,50,51,51,52,52],"right_children":[2,4,6,8,10,12,14,16,18,20,22,-1,-1,-1,24,26,28,-1,-1,-1,-1,-1,30,32,34,36,38,40,42,44,-1,46,48,50,52,54,-1,56,58,60,62,64,66,-1,-1,68,70,72,-1,74,76,78,80,-1,-1,-1,-1,-1,-1,-1,-1,-1,-1,-1,-1,-1,-1,-1,-1,-1,-1,-1,-1,-1,-1,-1,-1,-1,-1,-1,-1],"split_conditions":[1.1348034E0,1.1380575E0,1.1355462E0,1.1347909E0,-2.2660552E-4,5.5460224E1,1.1356093E0,1.1350112E0,1.13532E0,1.1389126E0,-1.1343813E-4,-2.3699188E-1,-3.9106436E-2,2.2439323E-1,5.56337E1,1.1344206E0,4.3760334E1,2.873095E-1,3.742226E-2,-2.4459842E-1,-3.530382E-2,1.8199645E-1,5.628773E1,4.508021E-4,1.1379468E0,1.1336681E0,6.2653984E1,1.13532E0,4.550389E1,5.0453568E1,-1.4689615E-1,4.410758E1,5.692719E-4,2.271398E-4,1.1394539E0,1.1330166E0,2.3675513E-1,1.1349161E-4,7.249931E1,1.135106E0,1.1334829E0,1.1357205E0,4.6805733E1,-6.748069E-2,2.3833612E-1,1.1372119E0,4.5574566E1,1.1357611E0,-5.988273E-2,1.1359477E0,1.1375085E0,6.768195E1,1.1399603E0,2.2099854E-2,-7.724445E-2,-1.0715946E-1,3.913051E-2,7.152699E-2,-1.6530049E-1,9.7850144E-2,2.614734E-1,1.2035891E-2,9.031697E-2,-2.3051823E-2,-1.7448315E-1,1.5494214E-1,1.08131785E-2,-7.864329E-2,-9.236689E-3,9.847984E-2,8.6131655E-3,2.9198465E-1,8.063891E-2,-5.4395724E-2,-1.7262554E-1,9.003725E-2,-1.1053008E-1,2.981692E-2,-5.7343908E-2,-1.922739E-1,1.3083535E-2],"split_indices":[5,4,4,5,0,3,4,4,4,4,0,0,0,0,3,4,3,0,0,0,0,0,3,0,4,5,3,4,3,3,0,3,0,0,5,5,0,0,3,4,5,4,3,0,0,4,3,5,0,5,4,3,5,0,0,0,0,0,0,0,0,0,0,0,0,0,0,0,0,0,0,0,0,0,0,0,0,0,0,0,0],"split_type":[0,0,0,0,0,0,0,0,0,0,0,0,0,0,0,0,0,0,0,0,0,0,0,0,0,0,0,0,0,0,0,0,0,0,0,0,0,0,0,0,0,0,0,0,0,0,0,0,0,0,0,0,0,0,0,0,0,0,0,0,0,0,0,0,0,0,0,0,0,0,0,0,0,0,0,0,0,0,0,0,0],"sum_hessian":[1.1368826E3,5.583264E2,5.7855615E2,5.424691E2,1.5857326E1,7.0227365E0,5.7153345E2,5.38022E2,4.447111E0,5.4122195E0,1.0445106E1,3.641268E0,3.3814688E0,2.9633882E0,5.6857007E2,3.4535516E2,1.9266684E2,1.7171141E0,2.729997E0,3.5766044E0,1.8356153E0,1.1175878E0,9.327518E0,3.9488098E2,1.7368907E2,3.021025E2,4.325266E1,5.412965E1,1.3853719E2,6.713843E0,2.613675E0,3.8488214E2,9.998833E0,7.367089E1,1.0001818E2,2.998686E2,2.2338996E0,3.077306E1,1.2479599E1,9.807968E0,4.4321682E1,1.0843914E1,1.27693275E2,5.028297E0,1.6855462E0,1.6534622E2,2.1953593E2,8.036836E0,1.9619966E0,5.2540134E1,2.1130753E1,9.1186035E1,8.832151E0,2.859676E2,1.3901024E1,2.6849487E1,3.9235723E0,1.0029397E1,2.4502022E0,5.8804407E0,3.9275272E0,1.3770436E1,3.0551247E1,6.1412497E0,4.7026644E0,7.7035923E0,1.1998968E2,3.0397701E1,1.3494852E2,2.1441978E1,1.9809395E2,2.4815454E0,5.5552907E0,3.1072084E1,2.146805E1,1.4369442E1,6.7613096E0,6.884355E1,2.2342484E1,5.2446613E0,3.5874898E0],"tree_param":{"num_deleted":"0","num_feature":"6","num_nodes":"81","size_leaf_vector":"1"}},{"base_weights":[2.7202314E-2,-4.4968475E-2,5.0985582E-2,-7.226755E-3,-4.8538205E-1,1.0126097E0,4.3457508E-2,1.3899718E-1,-1.729033E-2,-1.9509806E-1,-2.07197E-1,-7.70563E-3,2.643442E-1,1.9337407E-1,2.238735E-2,-4.8345923E-1,2.3386346E-3,-5.0244915E-1,2.770275E-1,1.2175979E-3,7.1618193E-1,-2.4708124E-1,5.074672E-2,1.7620341E-1,-1.0168141E0,1.635294E-1,-5.8227857E-3,-7.660819E-1,7.71956E-2,5.97803E-1,-4.200647E-2,8.430497E-2,-2.3874298E-1,4.913615E-1,1.4510428E0,-1.41879525E-2,-5.997545E-1,1.7957543E-1,9.650138E-3,-1.9857591E-2,-2.4064171E-1,4.271122E-2,-1.6856684E-1,-2.5517023E-1,-1.5842062E-1,-4.9439963E-2,2.2020136E-1,3.5976994E-1,-1.4660427E-1,9.795008E-1,2.718558E-1,3.6086616E-1,-2.017451E-3,1.6189575E-1,-9.739902E-2,6.428295E-2,-1.333562E-1,-1.060851E-1,2.5543258E-1,-1.7581053E-1,1.9186784E-2,-2.3240137E-3,6.842797E-2,-1.2044511E-1,-1.854699E-4,7.718932E-2,-1.4714466E-1,4.0961955E-2,1.8927033E-1,-3.8383757E-3,-1.8877679E-1,-5.7738524E-2,2.77574E-1,1.6414492E-1,-1.8489506E-3,2.0607531E-2,-1.101044E-1,2.7123583E-2,-8.4012896E-2,1.444432E-2,9.6974894E-2,-8.192178E-3,2.3823155E-2],"categories":[],"categories_nodes":[],"categories_segments":[],"categories_sizes":[],"default_left":[0,0,0,0,0,0,0,0,0,0,0,0,0,0,0,0,0,0,0,0,0,0,0,0,0,0,0,0,0,0,0,0,0,0,0,0,0,0,0,0,0,0,0,0,0,0,0,0,0,0,0,0,0,0,0,0,0,0,0,0,0,0,0,0,0,0,0,0,0,0,0,0,0,0,0,0,0,0,0,0,0,0,0],"id":11,"left_children":[1,3,5,7,9,11,13,-1,15,17,-1,-1,-1,19,21,23,25,27,29,31,33,35,37,-1,39,-1,41,43,-1,45,-1,47,-1,49,51,53,55,57,59,-1,-1,61,63,-1,65,-1,-1,67,69,71,73,-1,-1,-1,75,-1,-1,77,79,-1,81,-1,-1,-1,-1,-1,-1,-1,-1,-1,-1,-1,-1,-1,-1,-1,-1,-1,-1,-1,-1,-1,-1],"loss_changes":[1.9612541E0,4.7073336E0,6.1735163E0,1.863903E0,3.3709135E0,2.20403E0,2.6908703E0,0E0,2.3740962E0,2.4420364E0,0E0,0E0,0E0,1.0548704E1,5.7381454E0,8.524947E0,1.6672523E0,2.6303077E0,1.2039273E0,7.8239326E0,3.9495583E0,5.8652134E0,3.5916958E0,0E0,1.2489262E0,0E0,1.9689198E0,2.2827544E0,0E0,2.1521993E0,0E0,4.7384977E0,0E0,2.2112556E0,3.166689E0,3.1010175E0,1.9689236E0,3.5828786E0,4.3869367E0,0E0,0E0,3.1292431E0,4.161785E0,0E0,1.7928219E0,0E0,0E0,2.8859391E0,4.1249437E0,3.9162035E0,2.6820204E0,0E0,0E0,0E0,3.7751253E0,0E0,0E0,2.7235825E0,5.4277744E0,0E0,3.0770361E0,0E0,0E0,0E0,0E0,0E0,0E0,0E0,0E0,0E0,0E0,0E0,0E0,0E0,0E0,0E0,0E0,0E0,0E0,0E0,0E0,0E0,0E0],"parents":[2147483647,0,0,1,1,2,2,3,3,4,4,5,5,6,6,8,8,9,9,13,13,14,14,15,15,16,16,17,17,18,18,19,19,20,20,21,21,22,22,24,24,26,26,27,27,29,29,31,31,33,33,34,34,35,35,36,36,37,37,38,38,41,41,42,42,44,44,47,47,48,48,49,49,50,50,54,54,57,57,58,58,60,60],"right_children":[2,4,6,8,10,12,14,-1,16,18,-1,-1,-1,20,22,24,26,28,30,32,34,36,38,-1,40,-1,42,44,-1,46,-1,48,-1,50,52,54,56,58,60,-1,-1,62,64,-1,66,-1,-1,68,70,72,74,-1,-1,-1,76,-1,-1,78,80,-1,82,-1,-1,-1,-1,-1,-1,-1,-1,-1,-1,-1,-1,-1,-1,-1,-1,-1,-1,-1,-1,-1,-1],"split_conditions":[-2.1425147E-4,-2.3763646E-4,3.6169308E1,1.1283647E0,1.1348963E-4,-3.419983E-4,4.5398285E1,1.3899718E-1,1.129771E0,-1.1304512E-4,-2.07197E-1,-7.70563E-3,2.643442E-1,1.1379764E0,4.7572582E1,3.1526821E1,1.1300528E0,-2.1827802E-4,4.0635044E1,1.1376405E0,-4.0752533E-5,-5.0450173E-5,5.2263107E1,1.7620341E-1,-5.733485E-4,1.635294E-1,4.177082E1,1.136695E0,7.71956E-2,3.793723E1,-4.200647E-2,1.13532E0,-2.3874298E-1,-1.7248197E-4,1.1401523E0,-1.8392432E-4,1.1277679E0,-1.1392908E-4,5.239527E1,-1.9857591E-2,-2.4064171E-1,3.9762268E1,-4.0900806E-4,-2.5517023E-1,1.1390662E0,-4.9439963E-2,2.2020136E-1,1.1349374E0,-4.6987014E-5,-2.2780545E-4,-2.2780545E-4,3.6086616E-1,-2.017451E-3,1.6189575E-1,1.1372588E0,6.428295E-2,-1.333562E-1,1.1378695E0,-7.1108393E-6,-1.7581053E-1,1.1369028E-4,-2.3240137E-3,6.842797E-2,-1.2044511E-1,-1.854699E-4,7.718932E-2,-1.4714466E-1,4.0961955E-2,1.8927033E-1,-3.8383757E-3,-1.8877679E-1,-5.7738524E-2,2.77574E-1,1.6414492E-1,-1.8489506E-3,2.0607531E-2,-1.101044E-1,2.7123583E-2,-8.4012896E-2,1.444432E-2,9.6974894E-2,-8.192178E-3,2.3823155E-2],"split_indices":[2,2,3,4,0,0,3,0,4,0,0,0,0,4,3,3,4,2,3,4,2,2,3,0,2,0,3,4,0,3,0,4,0,2,4,2,4,0,3,0,0,3,2,0,4,0,0,4,2,0,0,0,0,0,4,0,0,4,2,0,0,0,0,0,0,0,0,0,0,0,0,0,0,0,0,0,0,0,0,0,0,0,0],"split_type":[0,0,0,0,0,0,0,0,0,0,0,0,0,0,0,0,0,0,0,0,0,0,0,0,0,0,0,0,0,0,0,0,0,0,0,0,0,0,0,0,0,0,0,0,0,0,0,0,0,0,0,0,0,0,0,0,0,0,0,0,0,0,0,0,0,0,0,0,0,0,0,0,0,0,0,0,0,0,0,0,0,0,0],"sum_hessian":[1.1402819E3,2.824106E2,8.578713E2,2.6105557E2,2.1355034E1,5.6266046E0,8.522446E2,2.7267938E0,2.583288E2,1.486983E1,6.4852037E0,1.4775453E0,4.1490593E0,1.0401174E2,7.482329E2,9.483154E0,2.4884563E2,8.967688E0,5.902142E0,7.67901E1,2.7221642E1,7.051283E1,6.777201E2,2.4818985E0,7.001256E0,1.4832946E0,2.4736234E2,7.0217547E0,1.9459329E0,3.4214313E0,2.4807107E0,7.26668E1,4.123301E0,2.2122284E1,5.0993586E0,4.3094765E1,2.7418068E1,1.6309227E2,5.146278E2,1.440935E0,5.560321E0,1.9110732E2,5.625502E1,3.2204766E0,3.8012784E0,1.4668976E0,1.9545337E0,3.2881958E1,3.978484E1,5.7881746E0,1.6334108E1,3.9173028E0,1.1820557E0,3.1533394E0,3.994142E1,1.602262E0,2.5815805E1,3.4137997E1,1.2895427E2,4.495802E0,5.1013202E2,1.6257018E2,2.8537144E1,1.4960925E1,4.1294098E1,2.1270466E0,1.6742316E0,2.7077831E1,5.8041253E0,3.5185894E1,4.5989475E0,1.4812384E0,4.3069363E0,4.881991E0,1.1452117E1,2.8227663E1,1.1713759E1,1.9610102E1,1.4527894E1,7.2431755E1,5.652251E1,3.188219E2,1.9131012E2],"tree_param":{"num_deleted":"0","num_feature":"6","num_nodes":"83","size_leaf_vector":"1"}},{"base_weights":[4.0345144E-2,4.693069E-2,-3.11448E-1,-2.4395969E-2,7.864133E-2,-8.3231497E-1,1.3041854E-2,-3.474589E-3,-1.4316548E-1,9.938818E-2,-2.35895E-1,-2.3437698E-1,-3.285905E-2,6.2645245E-1,-2.8815496E-1,-1.7944609E-1,6.71081E-2,3.9743966E-1,7.0788026E-2,-4.6954116E-1,1.0016697E-1,3.2728102E-2,2.7175513E-1,-1.7869595E-1,1.4845131E-1,8.312244E-2,-3.027448E-1,9.7146803E-1,4.8419688E-2,2.972835E-1,1.0788072E0,-1.5744986E-1,1.0713578E-1,-5.641882E-1,1.4698344E-1,3.0643457E-1,-1.5442178E-1,1.3237417E-1,-1.22290745E-1,1.1275055E-1,-7.503639E-2,-1.9345263E-1,4.413965E-1,-9.158276E-1,-1.6049296E-1,2.6846513E-1,3.7956957E-2,-1.9035038E-1,1.0186402E-1,2.0897363E-1,2.4727061E-1,2.4915834E-1,1.2801699E-2,-4.4214975E-2,-5.908839E-1,2.6435152E-1,6.183132E-2,-3.4849322E-1,-1.9277905E-1,-1.323016E-1,1.5614317E-1,1.2926707E-1,2.6687172E-1,3.8681276E-2,-2.1333127E-1,-1.0555961E-1,1.2758332E-1,1.150979E-2,-2.2678986E-1,1.4047782E-1,-5.575457E-2,-5.0561506E-2,1.3183852E-1,4.4896286E-2,-3.2416396E-4,7.585543E-2,-3.2891385E-2,1.4114811E-2,-1.3916607E-1,-1.7904873E-1,1.283319E-2,1.3321717E-2,7.4964724E-2,1.0921958E-2,2.7107757E-1,-1.3170421E-1,1.29278675E-2,5.7757825E-2,-1.3912985E-1],"categories":[],"categories_nodes":[],"categories_segments":[],"categories_sizes":[],"default_left":[0,0,0,0,0,0,0,0,0,0,0,0,0,0,0,0,0,0,0,0,0,0,0,0,0,0,0,0,0,0,0,0,0,0,0,0,0,0,0,0,0,0,0,0,0,0,0,0,0,0,0,0,0,0,0,0,0,0,0,0,0,0,0,0,0,0,0,0,0,0,0,0,0,0,0,0,0,0,0,0,0,0,0,0,0,0,0,0,0],"id":12,"left_children":[1,3,5,7,9,11,13,15,-1,17,19,-1,-1,21,23,25,27,29,31,33,35,37,-1,-1,39,41,43,45,47,49,51,53,55,57,59,61,-1,-1,-1,-1,-1,63,65,67,69,-1,-1,71,73,75,-1,-1,-1,77,79,81,83,85,-1,-1,-1,87,-1,-1,-1,-1,-1,-1,-1,-1,-1,-1,-1,-1,-1,-1,-1,-1,-1,-1,-1,-1,-1,-1,-1,-1,-1,-1,-1],"loss_changes":[2.6699173E0,2.5485847E0,3.5926774E0,5.021178E0,5.111214E0,1.6562171E0,2.7749066E0,4.211261E0,0E0,6.212673E0,3.8584206E0,0E0,0E0,2.1031694E0,2.8026826E0,3.1673708E0,4.043493E0,4.038952E0,5.5687876E0,1.7640057E0,3.9666467E0,1.9255301E0,0E0,0E0,1.6743723E0,3.2362738E0,5.6317058E0,1.1505752E0,3.0587873E0,4.475028E0,1.2431479E0,4.505989E0,4.099734E0,1.8351278E0,2.8873885E0,3.011332E0,0E0,0E0,0E0,0E0,0E0,6.503186E0,3.033276E0,2.6695642E0,5.808571E0,0E0,0E0,2.4965367E0,2.4781528E0,3.4568257E0,0E0,0E0,0E0,5.6062655E0,3.854742E0,2.7924166E0,4.128903E0,2.3380585E0,0E0,0E0,0E0,2.308948E0,0E0,0E0,0E0,0E0,0E0,0E0,0E0,0E0,0E0,0E0,0E0,0E0,0E0,0E0,0E0,0E0,0E0,0E0,0E0,0E0,0E0,0E0,0E0,0E0,0E0,0E0,0E0],"parents":[2147483647,0,0,1,1,2,2,3,3,4,4,5,5,6,6,7,7,9,9,10,10,13,13,14,14,15,15,16,16,17,17,18,18,19,19,20,20,21,21,24,24,25,25,26,26,27,27,28,28,29,29,30,30,31,31,32,32,33,33,34,34,35,35,41,41,42,42,43,43,44,44,47,47,48,48,49,49,53,53,54,54,55,55,56,56,57,57,61,61],"right_children":[2,4,6,8,10,12,14,16,-1,18,20,-1,-1,22,24,26,28,30,32,34,36,38,-1,-1,40,42,44,46,48,50,52,54,56,58,60,62,-1,-1,-1,-1,-1,64,66,68,70,-1,-1,72,74,76,-1,-1,-1,78,80,82,84,86,-1,-1,-1,88,-1,-1,-1,-1,-1,-1,-1,-1,-1,-1,-1,-1,-1,-1,-1,-1,-1,-1,-1,-1,-1,-1,-1,-1,-1,-1,-1],"split_conditions":[1.1399184E0,1.1349741E0,4.7394318E1,1.1348904E0,6.832537E1,1.1426588E0,5.251541E1,4.4267166E1,-1.4316548E-1,1.1354833E0,7.184473E1,-2.3437698E-1,-3.285905E-2,5.0899952E1,1.1404216E0,1.128802E0,4.4858704E1,1.134759E0,1.1361424E0,4.508021E-4,4.508021E-4,4.9502605E1,2.7175513E-1,-1.7869595E-1,1.1426588E0,1.129498E0,1.1321797E0,1.1327028E0,-1.1322322E-4,1.1354575E0,1.1348519E0,5.857175E1,1.1353698E0,1.1387635E-4,6.97813E1,3.4129628E-4,-1.5442178E-1,1.3237417E-1,-1.22290745E-1,1.1275055E-1,-7.503639E-2,1.1289824E0,2.2135653E1,-2.2609341E-4,1.1325794E0,2.6846513E-1,3.7956957E-2,6.689139E1,5.628773E1,1.1352789E0,2.4727061E-1,2.4915834E-1,1.2801699E-2,1.135099E0,1.1359233E0,1.1367161E0,7.920858E-4,1.1374478E0,-1.9277905E-1,-1.323016E-1,1.5614317E-1,1.1409212E0,2.6687172E-1,3.8681276E-2,-2.1333127E-1,-1.0555961E-1,1.2758332E-1,1.150979E-2,-2.2678986E-1,1.4047782E-1,-5.575457E-2,-5.0561506E-2,1.3183852E-1,4.4896286E-2,-3.2416396E-4,7.585543E-2,-3.2891385E-2,1.4114811E-2,-1.3916607E-1,-1.7904873E-1,1.283319E-2,1.3321717E-2,7.4964724E-2,1.0921958E-2,2.7107757E-1,-1.3170421E-1,1.29278675E-2,5.7757825E-2,-1.3912985E-1],"split_indices":[5,4,3,4,3,4,3,3,0,4,3,0,0,3,4,5,3,5,4,0,0,3,0,0,4,4,4,4,0,4,5,3,5,0,3,0,0,0,0,0,0,4,3,0,4,0,0,3,3,4,0,0,0,5,4,4,0,4,0,0,0,4,0,0,0,0,0,0,0,0,0,0,0,0,0,0,0,0,0,0,0,0,0,0,0,0,0,0,0],"split_type":[0,0,0,0,0,0,0,0,0,0,0,0,0,0,0,0,0,0,0,0,0,0,0,0,0,0,0,0,0,0,0,0,0,0,0,0,0,0,0,0,0,0,0,0,0,0,0,0,0,0,0,0,0,0,0,0,0,0,0,0,0,0,0,0,0,0,0,0,0,0,0,0,0,0,0,0,0,0,0,0,0,0,0,0,0,0,0,0,0],"sum_hessian":[1.145132E3,1.1249397E3,2.0192204E1,3.4628116E2,7.7865857E2,7.1500463E0,1.3042157E1,3.370866E2,9.194564E0,7.31118E2,4.75406E1,4.240324E0,2.909722E0,3.939396E0,9.102761E0,9.6058464E1,2.4102814E2,6.2884266E1,6.682337E2,2.7809166E1,1.9731434E1,2.7525122E0,1.1868836E0,3.3758948E0,5.7268667E0,3.0798315E1,6.526015E1,3.847745E0,2.3718039E2,5.6077568E1,6.806697E0,9.134167E1,5.76892E2,2.4181746E1,3.6274214E0,1.6482502E1,3.248932E0,1.3786188E0,1.3738933E0,3.1510801E0,2.5757868E0,1.7640505E1,1.315781E1,1.1266265E1,5.399388E1,2.1232004E0,1.7245445E0,4.2910416E1,1.9426997E2,5.2374786E1,3.70278E0,5.6494584E0,1.1572387E0,7.329526E1,1.8046413E1,1.279711E2,4.4892096E2,1.6921968E1,7.2597775E0,1.5746784E0,2.052743E0,1.5019565E1,1.4629368E0,1.2764088E1,4.876416E0,1.9340038E0,1.1223806E1,2.1972246E0,9.06904E0,5.913683E0,4.80802E1,4.0626064E1,2.284349E0,8.838037E1,1.0588961E2,3.5959675E1,1.6415113E1,6.307552E1,1.0219735E1,1.2071076E1,5.975337E0,4.6442623E1,8.152848E1,4.474651E2,1.4558458E0,9.327983E0,7.5939856E0,1.3130341E1,1.8892245E0],"tree_param":{"num_deleted":"0","num_feature":"6","num_nodes":"89","size_leaf_vector":"1"}},{"base_weights":[-2.051838E-2,4.889714E-1,-2.7227454E-2,-4.6122473E-2,6.289115E-1,-3.3716002E-1,-1.9667609E-2,2.2052069E-1,3.3997172E-1,-4.6615002E-1,2.423158E-1,2.7693003E-2,-7.735964E-2,-1.9121861E-1,1.8994442E-1,5.3465992E-2,-1.0559195E-1,-1.9919187E-1,2.0013037E-1,-3.1166103E-1,4.288509E-2,-3.7526602E-1,-2.030379E-2,-1.3948688E-1,1.4770943E-1,8.3312735E-2,-1.1216122E-1,-1.5169476E-1,-1.7895071E-1,6.880887E-2,-1.738378E-1,-5.892138E-1,-9.153394E-2,6.5752107E-1,-3.4866374E-2,1.5237324E-1,-1.6351731E-1,2.923534E-1,-4.7279915E-1,4.6588536E-2,7.0694536E-1,-2.0535243E-1,-4.7500096E-2,-4.1235137E-1,-2.5368723E-1,7.5859204E-2,-2.2149603E-1,1.150728E0,-1.1880504E-1,-1.9109541E-1,2.1690449E-2,1.5458491E-1,-6.433513E-2,8.1190005E-2,-1.456608E-1,-1.61485E-2,2.1068614E-2,2.2498171E-1,9.048688E-2,4.3861236E-2,-5.5209216E-2,-1.8552814E-1,-4.7196593E-2,-3.5279788E-2,1.2404876E-1,7.2532855E-2,2.9232073E-1,5.3063943E-3,-8.102969E-2,2.5821093E-2,-2.1448348E-2],"categories":[],"categories_nodes":[],"categories_segments":[],"categories_sizes":[],"default_left":[0,0,0,0,0,0,0,0,0,0,0,0,0,0,0,0,0,0,0,0,0,0,0,0,0,0,0,0,0,0,0,0,0,0,0,0,0,0,0,0,0,0,0,0,0,0,0,0,0,0,0,0,0,0,0,0,0,0,0,0,0,0,0,0,0,0,0,0,0,0,0],"id":13,"left_children":[1,3,5,-1,7,9,11,-1,13,15,17,19,21,23,-1,-1,-1,25,-1,27,29,31,33,-1,35,-1,-1,-1,37,39,41,43,45,47,49,-1,-1,51,53,55,57,-1,59,61,-1,63,-1,65,-1,67,69,-1,-1,-1,-1,-1,-1,-1,-1,-1,-1,-1,-1,-1,-1,-1,-1,-1,-1,-1,-1],"loss_changes":[3.8926647E0,1.6357E0,2.6201673E0,0E0,1.3580937E0,2.1036673E0,2.9953363E0,0E0,3.1970997E0,1.1442413E0,2.0431252E0,3.118728E0,8.391308E0,1.0995007E0,0E0,0E0,0E0,1.1943182E0,0E0,1.4018848E0,3.2560065E0,4.7640486E0,4.126885E0,0E0,3.1745143E0,0E0,0E0,0E0,3.0883129E0,7.2899327E0,6.6291757E0,4.8905573E0,6.0878515E0,6.112392E0,3.6088881E0,0E0,0E0,2.8449411E0,3.3274076E0,3.7501135E0,1.3321075E0,0E0,3.415875E0,3.1651664E0,0E0,4.4002295E0,0E0,1.098917E0,0E0,5.066816E0,4.1746087E0,0E0,0E0,0E0,0E0,0E0,0E0,0E0,0E0,0E0,0E0,0E0,0E0,0E0,0E0,0E0,0E0,0E0,0E0,0E0,0E0],"parents":[2147483647,0,0,1,1,2,2,4,4,5,5,6,6,8,8,9,9,10,10,11,11,12,12,13,13,17,17,19,19,20,20,21,21,22,22,24,24,28,28,29,29,30,30,31,31,32,32,33,33,34,34,37,37,38,38,39,39,40,40,42,42,43,43,45,45,47,47,49,49,50,50],"right_children":[2,4,6,-1,8,10,12,-1,14,16,18,20,22,24,-1,-1,-1,26,-1,28,30,32,34,-1,36,-1,-1,-1,38,40,42,44,46,48,50,-1,-1,52,54,56,58,-1,60,62,-1,64,-1,66,-1,68,70,-1,-1,-1,-1,-1,-1,-1,-1,-1,-1,-1,-1,-1,-1,-1,-1,-1,-1,-1,-1],"split_conditions":[1.1255859E0,4.5574566E1,-1.0169364E-3,-4.6122473E-2,6.28021E1,1.1412176E0,1.12624344E-4,2.2052069E-1,1.1283647E0,1.1289515E0,-1.2486373E-3,2.8801758E1,4.6227657E1,6.648933E1,1.8994442E-1,5.3465992E-2,-1.0559195E-1,1.1384906E0,2.0013037E-1,-5.6902785E-4,5.9861526E1,1.1370832E0,4.6805733E1,-1.3948688E-1,1.1274977E0,8.3312735E-2,-1.1216122E-1,-1.5169476E-1,-4.5104203E-4,5.8433617E1,6.046832E1,1.1345559E0,1.1386033E0,1.1357803E0,5.3519016E1,1.5237324E-1,-1.6351731E-1,1.1351233E0,1.1338582E0,1.1352199E0,1.1339825E0,-2.0535243E-1,1.1343716E0,1.13305156E-4,-2.5368723E-1,4.3760334E1,-2.2149603E-1,4.633785E1,-1.1880504E-1,5.0544395E1,1.1368304E0,1.5458491E-1,-6.433513E-2,8.1190005E-2,-1.456608E-1,-1.61485E-2,2.1068614E-2,2.2498171E-1,9.048688E-2,4.3861236E-2,-5.5209216E-2,-1.8552814E-1,-4.7196593E-2,-3.5279788E-2,1.2404876E-1,7.2532855E-2,2.9232073E-1,5.3063943E-3,-8.102969E-2,2.5821093E-2,-2.1448348E-2],"split_indices":[5,3,1,0,3,4,1,0,4,5,1,3,3,3,0,0,0,5,0,1,3,4,3,0,4,0,0,0,1,3,3,5,5,5,3,0,0,5,4,4,5,0,5,1,0,3,0,3,0,3,4,0,0,0,0,0,0,0,0,0,0,0,0,0,0,0,0,0,0,0,0],"split_type":[0,0,0,0,0,0,0,0,0,0,0,0,0,0,0,0,0,0,0,0,0,0,0,0,0,0,0,0,0,0,0,0,0,0,0,0,0,0,0,0,0,0,0,0,0,0,0,0,0,0,0,0,0,0,0,0,0,0,0,0,0,0,0,0,0,0,0,0,0,0,0],"sum_hessian":[1.1339092E3,1.380324E1,1.1201058E3,2.14183E0,1.166141E1,2.5632822E1,1.094473E3,3.3512657E0,8.310144E0,2.1125828E1,4.5069947E0,6.0134015E2,4.931329E2,4.808002E0,3.5021424E0,1.383473E0,1.9742353E1,3.3145654E0,1.1924291E0,2.493087E1,5.764093E2,7.836864E1,4.1476425E2,1.5039575E0,3.3040445E0,1.1701247E0,2.144441E0,4.6293592E0,2.0301512E1,5.154367E2,6.097258E1,4.4064903E1,3.4303738E1,7.7948856E0,4.0696936E2,2.1480925E0,1.155952E0,7.798527E0,1.2502985E1,4.991297E2,1.6307016E1,6.946773E0,5.4025806E1,3.6236412E1,7.828491E0,3.0245625E1,4.0581117E0,5.649211E0,2.145675E0,1.0753701E2,2.9943234E2,4.2295136E0,3.5690129E0,2.683815E0,9.81917E0,1.574767E2,3.41653E2,4.8773875E0,1.1429629E1,2.494512E1,2.9080688E1,8.15387E0,2.8082542E1,2.1130222E1,9.115403E0,2.2109883E0,3.4382224E0,5.3757698E1,5.3779316E1,1.6334569E2,1.3608667E2],"tree_param":{"num_deleted":"0","num_feature":"6","num_nodes":"71","size_leaf_vector":"1"}},{"base_weights":[-2.1315927E-2,-7.5000403E-3,-2.6522705E-1,-1.1029823E-2,6.990222E-1,-4.9711487E-1,2.9317694E-2,3.7769717E-1,-1.7099125E-2,1.9530262E-1,-1.6083922E-2,-3.0850414E-2,-7.8059876E-1,-1.6030234E-1,1.4742929E-1,-3.163409E-2,5.41021E-1,-1.3469125E-1,6.360141E-3,-1.874683E-1,1.7856489E-1,-2.5693837E-1,-4.9735194E-1,6.467837E-1,-1.371932E-1,-3.261759E-2,7.1188307E-1,-8.3492994E-2,-6.6544896E-1,3.051781E-1,-1.0749411E-2,2.6258326E-1,-4.5617414E-1,1.1471062E-1,-7.210774E-1,1.6418245E-1,2.6875797E-1,6.7237625E-3,-1.8724892E-1,-3.975557E-3,1.7180334E-1,-1.2296064E-1,1.7038743E-1,-1.0371264E0,-4.9746864E-2,-5.0979507E-1,3.7705624E-1,-2.2004849E-1,1.073158E-2,-1.16578035E-1,1.5315972E-1,-8.547223E-1,1.8975031E-1,3.9478745E-2,-1.7861383E-1,-2.376727E-1,1.5674052E-1,-3.683004E-1,3.2454726E-1,-1.8551867E-2,-2.0692794E-1,1.4906977E-2,-2.3895243E-1,1.2339653E-1,-7.797837E-2,2.6062537E-2,-1.7228675E-1,1.883397E-1,3.863765E-2,4.71106E-2,-8.058805E-2,4.0951688E-2,-1.5187988E-3,-4.463951E-4,-2.2020204E-1,1.3674174E-1,-9.154269E-2,1.0802795E-1,-1.7905949E-1,9.814377E-3,-1.4893751E-1,1.3415736E-1,-6.630281E-2],"categories":[],"categories_nodes":[],"categories_segments":[],"categories_sizes":[],"default_left":[0,0,0,0,0,0,0,0,0,0,0,0,0,0,0,0,0,0,0,0,0,0,0,0,0,0,0,0,0,0,0,0,0,0,0,0,0,0,0,0,0,0,0,0,0,0,0,0,0,0,0,0,0,0,0,0,0,0,0,0,0,0,0,0,0,0,0,0,0,0,0,0,0,0,0,0,0,0,0,0,0,0,0],"id":14,"left_children":[1,3,5,7,9,11,13,15,17,-1,-1,19,21,-1,23,-1,25,27,29,31,-1,-1,33,35,37,-1,39,41,43,45,47,49,51,-1,53,55,-1,57,-1,-1,-1,59,-1,61,63,65,67,69,71,-1,-1,73,75,-1,-1,77,-1,79,81,-1,-1,-1,-1,-1,-1,-1,-1,-1,-1,-1,-1,-1,-1,-1,-1,-1,-1,-1,-1,-1,-1,-1,-1],"loss_changes":[3.8247564E0,2.6904607E0,4.1704206E0,2.534155E0,1.2385268E0,4.4831448E0,2.8409178E0,1.5308623E0,2.9135811E0,0E0,0E0,2.1831787E0,2.3830795E0,0E0,3.6614447E0,0E0,1.6659455E0,4.7176085E0,4.508582E0,1.6605319E0,0E0,0E0,4.0511694E0,2.9080422E0,1.9424148E0,0E0,1.1533136E0,6.061417E0,3.45194E0,2.9897804E0,3.7540116E0,2.7428737E0,2.3099208E0,0E0,2.2301989E0,1.8381016E0,0E0,1.9383401E0,0E0,0E0,0E0,4.190647E0,0E0,1.7531738E0,1.7857364E0,1.0791881E0,4.4340434E0,6.570752E0,2.6957936E0,0E0,0E0,1.1189537E0,1.5928024E0,0E0,0E0,2.9346356E0,0E0,1.209765E0,2.2193482E0,0E0,0E0,0E0,0E0,0E0,0E0,0E0,0E0,0E0,0E0,0E0,0E0,0E0,0E0,0E0,0E0,0E0,0E0,0E0,0E0,0E0,0E0,0E0,0E0],"parents":[2147483647,0,0,1,1,2,2,3,3,4,4,5,5,6,6,7,7,8,8,11,11,12,12,14,14,16,16,17,17,18,18,19,19,22,22,23,23,24,24,26,26,27,27,28,28,29,29,30,30,31,31,32,32,34,34,35,35,37,37,41,41,43,43,44,44,45,45,46,46,47,47,48,48,51,51,52,52,55,55,57,57,58,58],"right_children":[2,4,6,8,10,12,14,16,18,-1,-1,20,22,-1,24,-1,26,28,30,32,-1,-1,34,36,38,-1,40,42,44,46,48,50,52,-1,54,56,-1,58,-1,-1,-1,60,-1,62,64,66,68,70,72,-1,-1,74,76,-1,-1,78,-1,80,82,-1,-1,-1,-1,-1,-1,-1,-1,-1,-1,-1,-1,-1,-1,-1,-1,-1,-1,-1,-1,-1,-1,-1,-1],"split_conditions":[1.1410137E0,1.1409212E0,1.1419848E0,1.1255859E0,6.0692207E1,4.261018E1,1.1358316E0,1.121981E0,1.1328107E0,1.9530262E-1,-1.6083922E-2,4.177082E1,5.1151463E1,-1.6030234E-1,1.1392107E0,-3.163409E-2,4.9583935E1,6.448788E1,1.1335127E0,3.524945E1,1.7856489E-1,-2.5693837E-1,5.392937E1,1.1387954E0,6.402862E1,-3.261759E-2,-1.14125774E-4,6.292305E1,6.910526E1,3.1031992E1,1.1345052E0,1.1412973E0,1.1393068E0,1.1471062E-1,1.1411107E0,1.144766E0,2.6875797E-1,4.6805733E1,-1.8724892E-1,-3.975557E-3,1.7180334E-1,1.1315143E0,1.7038743E-1,1.1288522E0,7.0227234E1,1.1294812E0,4.1400246E1,1.1322569E0,3.4730267E1,-1.16578035E-1,1.5315972E-1,1.1411711E0,-1.1396873E-4,3.9478745E-2,-1.7861383E-1,1.1366717E0,1.5674052E-1,4.177082E1,1.141388E-4,-1.8551867E-2,-2.0692794E-1,1.4906977E-2,-2.3895243E-1,1.2339653E-1,-7.797837E-2,2.6062537E-2,-1.7228675E-1,1.883397E-1,3.863765E-2,4.71106E-2,-8.058805E-2,4.0951688E-2,-1.5187988E-3,-4.463951E-4,-2.2020204E-1,1.3674174E-1,-9.154269E-2,1.0802795E-1,-1.7905949E-1,9.814377E-3,-1.4893751E-1,1.3415736E-1,-6.630281E-2],"split_indices":[4,4,4,5,3,3,5,5,4,0,0,3,3,0,5,0,3,3,4,3,0,0,3,5,3,0,0,3,3,3,4,4,5,0,4,4,0,3,0,0,0,5,0,4,3,5,3,5,3,0,0,4,0,0,0,5,0,3,0,0,0,0,0,0,0,0,0,0,0,0,0,0,0,0,0,0,0,0,0,0,0,0,0],"split_type":[0,0,0,0,0,0,0,0,0,0,0,0,0,0,0,0,0,0,0,0,0,0,0,0,0,0,0,0,0,0,0,0,0,0,0,0,0,0,0,0,0,0,0,0,0,0,0,0,0,0,0,0,0,0,0,0,0,0,0,0,0,0,0,0,0,0,0,0,0,0,0,0,0,0,0,0,0,0,0,0,0,0,0],"sum_hessian":[1.1345837E3,1.074738E3,5.984576E1,1.0703749E3,4.3632007E0,3.3099556E1,2.6746204E1,1.5513825E1,1.054861E3,3.0312142E0,1.3319862E0,1.2934374E1,2.0165184E1,2.6088414E0,2.4137362E1,3.631238E0,1.1882587E1,1.746529E2,8.802081E2,1.1740671E1,1.1937021E0,5.982523E0,1.418266E1,8.3011055E0,1.5836257E1,2.329286E0,9.553301E0,1.603431E2,1.43098E1,4.6757236E1,8.3345087E2,4.397742E0,7.3429294E0,2.1806948E0,1.20019655E1,5.6350193E0,2.6660864E0,1.4259556E1,1.5767004E0,1.7440863E0,7.809215E0,1.5468517E2,5.6579227E0,8.496378E0,5.813422E0,3.2958233E0,4.346141E1,7.6717125E1,7.5673376E2,1.5817854E0,2.8159564E0,4.341119E0,3.0018106E0,1.8696989E0,1.0132267E1,3.7918046E0,1.8432149E0,6.468298E0,7.7912583E0,1.5079163E2,3.8935485E0,1.120647E0,7.375731E0,1.688958E0,4.124464E0,1.3917518E0,1.9040715E0,9.663638E0,3.3797775E1,2.1892588E1,5.4824535E1,6.4426605E1,6.923071E2,1.1992272E0,3.1418917E0,1.671002E0,1.3308085E0,1.8190064E0,1.972798E0,3.479517E0,2.9887807E0,5.0851173E0,2.706141E0],"tree_param":{"num_deleted":"0","num_feature":"6","num_nodes":"83","size_leaf_vector":"1"}},{"base_weights":[-9.091522E-3,-1.2803599E-1,-5.9780646E-3,1.4423557E-1,-1.7776676E-2,-2.5749758E-2,3.9411366E-1,-5.9580445E-1,-1.2015409E-2,7.810522E-2,-1.0281371E0,-2.399142E-2,6.0433275E-1,2.6199812E-2,-9.2582804E-1,2.2464094E-3,-2.3345493E-1,-1.4348696E-1,5.7413083E-1,-1.3129996E-2,-2.6791498E-1,-3.8463715E-1,2.1907663E-1,9.041433E-1,1.09251626E-1,-1.9326879E-1,-2.5303686E-1,-6.552423E-2,3.920195E-2,6.2418897E-2,-3.118416E-1,-1.9923948E-1,-2.2048522E-3,8.8005835E-1,1.1035014E-1,4.201461E-1,-1.2008611E0,3.998345E-1,2.5341985E-1,-1.634158E-1,9.606969E-2,7.4099146E-2,-1.3253048E-1,-2.3064476E-2,-2.8989208E-1,1.704579E-1,-9.579412E-3,-3.69117E-1,9.516252E-2,7.607403E-2,-5.5723574E-2,2.0371906E-1,-8.887895E-4,-6.912934E-2,1.6857757E-1,2.2427991E-1,-1.9100737E-2,-3.2846233E-1,-4.3591898E-2,1.5861478E-1,-2.5678873E-2,1.6948383E-2,-3.3251878E-2,-4.264408E-3,-9.868247E-2,2.26434E-2,1.6511393E-1,-4.4558257E-2,8.143771E-3,-5.471923E-2,-1.6709806E-1],"categories":[],"categories_nodes":[],"categories_segments":[],"categories_sizes":[],"default_left":[0,0,0,0,0,0,0,0,0,0,0,0,0,0,0,0,0,0,0,0,0,0,0,0,0,0,0,0,0,0,0,0,0,0,0,0,0,0,0,0,0,0,0,0,0,0,0,0,0,0,0,0,0,0,0,0,0,0,0,0,0,0,0,0,0,0,0,0,0,0,0],"id":15,"left_children":[1,-1,3,5,7,9,11,13,15,17,19,21,23,-1,25,27,29,31,33,-1,-1,35,-1,37,39,41,-1,43,45,-1,47,-1,49,51,53,55,57,59,-1,-1,-1,-1,-1,61,63,65,67,69,-1,-1,-1,-1,-1,-1,-1,-1,-1,-1,-1,-1,-1,-1,-1,-1,-1,-1,-1,-1,-1,-1,-1],"loss_changes":[2.1703072E0,0E0,1.9557973E0,3.4238834E0,3.39865E0,5.1573787E0,2.8797917E0,2.53725E0,3.2017326E0,5.041831E0,1.3056626E0,5.2126822E0,3.1267447E0,0E0,1.5083241E0,2.3901029E0,2.7205794E0,3.8514776E0,1.9080763E0,0E0,0E0,6.8872604E0,0E0,1.9456081E0,3.6010222E0,1.148542E0,0E0,3.2016053E0,3.9555533E0,0E0,2.6178975E0,0E0,3.113843E0,1.0304198E0,2.549594E0,2.144156E0,1.847672E0,1.5699575E0,0E0,0E0,0E0,0E0,0E0,4.4024334E0,2.9139462E0,6.1828694E0,4.8473215E0,2.0447092E0,0E0,0E0,0E0,0E0,0E0,0E0,0E0,0E0,0E0,0E0,0E0,0E0,0E0,0E0,0E0,0E0,0E0,0E0,0E0,0E0,0E0,0E0,0E0],"parents":[2147483647,0,0,2,2,3,3,4,4,5,5,6,6,7,7,8,8,9,9,10,10,11,11,12,12,14,14,15,15,16,16,17,17,18,18,21,21,23,23,24,24,25,25,27,27,28,28,30,30,32,32,33,33,34,34,35,35,36,36,37,37,43,43,44,44,45,45,46,46,47,47],"right_children":[2,-1,4,6,8,10,12,14,16,18,20,22,24,-1,26,28,30,32,34,-1,-1,36,-1,38,40,42,-1,44,46,-1,48,-1,50,52,54,56,58,60,-1,-1,-1,-1,-1,62,64,66,68,70,-1,-1,-1,-1,-1,-1,-1,-1,-1,-1,-1,-1,-1,-1,-1,-1,-1,-1,-1,-1,-1,-1,-1],"split_conditions":[-1.8132371E-3,-1.2803599E-1,-5.684183E-4,4.327426E1,-5.6757964E-4,4.2232494E1,1.1370673E0,3.649628E1,1.1405689E0,-1.1364995E-4,-4.5444648E-4,5.4681053E1,5.0139286E1,2.6199812E-2,-3.4057983E-4,-1.12788824E-4,3.8810482E1,1.1332122E0,1.137823E0,-1.3129996E-2,-2.6791498E-1,4.671039E1,2.1907663E-1,-2.2751527E-4,1.1387804E0,-5.680722E-4,-2.5303686E-1,-1.1351739E-4,1.1287795E-4,6.2418897E-2,1.0233743E-3,-1.9923948E-1,1.1372923E0,2.2598148E-4,1.1412973E0,-3.3864504E-4,5.1151463E1,-4.5645187E-4,2.5341985E-1,-1.634158E-1,9.606969E-2,7.4099146E-2,-1.3253048E-1,1.1373972E0,1.1332122E0,1.1393764E0,4.7572582E1,5.6177686E-4,9.516252E-2,7.607403E-2,-5.5723574E-2,2.0371906E-1,-8.887895E-4,-6.912934E-2,1.6857757E-1,2.2427991E-1,-1.9100737E-2,-3.2846233E-1,-4.3591898E-2,1.5861478E-1,-2.5678873E-2,1.6948383E-2,-3.3251878E-2,-4.264408E-3,-9.868247E-2,2.26434E-2,1.6511393E-1,-4.4558257E-2,8.143771E-3,-5.471923E-2,-1.6709806E-1],"split_indices":[1,0,1,3,1,3,4,3,4,0,0,3,3,0,0,1,3,4,4,0,0,3,0,0,4,1,0,1,1,0,1,0,4,0,4,0,3,0,0,0,0,0,0,4,4,4,3,1,0,0,0,0,0,0,0,0,0,0,0,0,0,0,0,0,0,0,0,0,0,0,0],"split_type":[0,0,0,0,0,0,0,0,0,0,0,0,0,0,0,0,0,0,0,0,0,0,0,0,0,0,0,0,0,0,0,0,0,0,0,0,0,0,0,0,0,0,0,0,0,0,0,0,0,0,0,0,0,0,0,0,0,0,0,0,0,0,0,0,0,0,0,0,0,0,0],"sum_hessian":[1.1055046E3,4.4226856E0,1.101082E3,7.936931E1,1.0217127E3,4.776977E1,3.1599539E1,9.0723095E0,1.0126404E3,4.412062E1,3.649152E0,1.0868679E1,2.073086E1,3.0214028E0,6.0509067E0,9.522975E2,6.034289E1,3.0987938E1,1.3132682E1,1.1881168E0,2.4610353E0,8.716678E0,2.152001E0,1.2397155E1,8.333706E0,2.4125388E0,3.6383677E0,3.3577182E2,6.1652563E2,7.206462E0,5.3136433E1,3.544419E0,2.744352E1,7.372153E0,5.760529E0,4.6334395E0,4.083238E0,6.0678253E0,6.3293295E0,2.0399055E0,6.2938E0,1.1917886E0,1.2207502E0,2.8326843E2,5.2503403E1,1.6637265E2,4.50153E2,5.0029816E1,3.1066165E0,1.1353453E1,1.6090067E1,6.242764E0,1.129389E0,3.875946E0,1.8845831E0,1.465591E0,3.1678486E0,2.3547628E0,1.7284756E0,3.1909459E0,2.8768792E0,1.61836E2,1.2143242E2,2.3110725E1,2.9392677E1,1.540824E2,1.229025E1,8.526968E1,3.6488333E2,4.284177E1,7.1880465E0],"tree_param":{"num_deleted":"0","num_feature":"6","num_nodes":"71","size_leaf_vector":"1"}},{"base_weights":[2.741801E-3,-2.0930726E-2,1.3322309E-1,5.4756866E-4,-1.7039171E-1,1.8444617E-1,-1.4477308E-1,-1.4711369E-2,3.657732E-1,5.3247366E-2,-3.0663922E-1,4.0284637E-1,6.306333E-2,-3.7409472E-1,5.486552E-1,6.231229E-1,-2.4886165E-2,6.422218E-1,-5.248377E-1,-2.0148998E-1,5.433179E-1,-6.352305E-1,5.3334694E-2,-5.8919102E-2,5.66567E-1,4.8299357E-1,-4.503519E-2,-7.406599E-1,-9.2393465E-2,2.0357163E-1,-7.29404E-3,1.2800744E-1,8.7272507E-1,-2.6074952E-1,-8.104141E-3,-2.4051538E-1,